<?xml version="1.0"?>
<opencv_storage>
<cascade>
  <stageType>BOOST</stageType>
  <featureType>HAAR</featureType>
  <height>15</height>
  <width>15</width>
  <stageParams>
    <boostType>GAB</boostType>
    <minHitRate>9.9599999189376831e-01</minHitRate>
    <maxFalseAlarm>4.0000000596046448e-01</maxFalseAlarm>
    <weightTrimRate>9.4999999999999996e-01</weightTrimRate>
    <maxDepth>1</maxDepth>
    <maxWeakCount>100</maxWeakCount></stageParams>
  <featureParams>
    <maxCatCount>0</maxCatCount>
    <featSize>1</featSize>
    <mode>BASIC</mode></featureParams>
  <stageNum>11</stageNum>
  <stages>
    <!-- stage 0 -->
    <_>
      <maxWeakCount>5</maxWeakCount>
      <stageThreshold>-6.5561342239379883e-01</stageThreshold>
      <weakClassifiers>
        <_>
          <internalNodes>
            0 -1 211 -6.2089890241622925e-02</internalNodes>
          <leafValues>
            8.1543117761611938e-01 -8.1916815042495728e-01</leafValues></_>
        <_>
          <internalNodes>
            0 -1 66 1.0759167373180389e-02</internalNodes>
          <leafValues>
            -5.7860803604125977e-01 6.9461250305175781e-01</leafValues></_>
        <_>
          <internalNodes>
            0 -1 197 1.3216917403042316e-02</internalNodes>
          <leafValues>
            -4.9275824427604675e-01 6.7769736051559448e-01</leafValues></_>
        <_>
          <internalNodes>
            0 -1 216 -8.4730163216590881e-03</internalNodes>
          <leafValues>
            4.1503942012786865e-01 -6.2287330627441406e-01</leafValues></_>
        <_>
          <internalNodes>
            0 -1 145 4.1075762361288071e-02</internalNodes>
          <leafValues>
            -3.5057398676872253e-01 7.3137134313583374e-01</leafValues></_></weakClassifiers></_>
    <!-- stage 1 -->
    <_>
      <maxWeakCount>10</maxWeakCount>
      <stageThreshold>-1.4114900827407837e+00</stageThreshold>
      <weakClassifiers>
        <_>
          <internalNodes>
            0 -1 250 3.4168332815170288e-02</internalNodes>
          <leafValues>
            -6.1609429121017456e-01 6.6714721918106079e-01</leafValues></_>
        <_>
          <internalNodes>
            0 -1 66 1.9386041909456253e-02</internalNodes>
          <leafValues>
            -4.4831442832946777e-01 6.3258439302444458e-01</leafValues></_>
        <_>
          <internalNodes>
            0 -1 201 -1.1510068550705910e-02</internalNodes>
          <leafValues>
            6.7548143863677979e-01 -4.1882556676864624e-01</leafValues></_>
        <_>
          <internalNodes>
            0 -1 96 -1.3418128713965416e-02</internalNodes>
          <leafValues>
            2.6793211698532104e-01 -7.3666322231292725e-01</leafValues></_>
        <_>
          <internalNodes>
            0 -1 13 1.3655682094395161e-02</internalNodes>
          <leafValues>
            -5.2890306711196899e-01 3.2536163926124573e-01</leafValues></_>
        <_>
          <internalNodes>
            0 -1 178 -2.1187026053667068e-02</internalNodes>
          <leafValues>
            1.9146355986595154e-01 -7.8154879808425903e-01</leafValues></_>
        <_>
          <internalNodes>
            0 -1 269 -1.9190275343134999e-03</internalNodes>
          <leafValues>
            3.9189210534095764e-01 -3.2925745844841003e-01</leafValues></_>
        <_>
          <internalNodes>
            0 -1 88 8.0409925431013107e-03</internalNodes>
          <leafValues>
            1.5147921442985535e-01 -8.0252426862716675e-01</leafValues></_>
        <_>
          <internalNodes>
            0 -1 146 4.6405605971813202e-02</internalNodes>
          <leafValues>
            -2.6350679993629456e-01 4.9802118539810181e-01</leafValues></_>
        <_>
          <internalNodes>
            0 -1 154 -5.8781863190233707e-03</internalNodes>
          <leafValues>
            1.9600401818752289e-01 -5.5477052927017212e-01</leafValues></_></weakClassifiers></_>
    <!-- stage 2 -->
    <_>
      <maxWeakCount>15</maxWeakCount>
      <stageThreshold>-1.2184652090072632e+00</stageThreshold>
      <weakClassifiers>
        <_>
          <internalNodes>
            0 -1 229 4.2385764420032501e-02</internalNodes>
          <leafValues>
            -3.3770778775215149e-01 6.2754124402999878e-01</leafValues></_>
        <_>
          <internalNodes>
            0 -1 66 2.3480659350752831e-02</internalNodes>
          <leafValues>
            -3.8467383384704590e-01 5.7623380422592163e-01</leafValues></_>
        <_>
          <internalNodes>
            0 -1 202 -1.5739645808935165e-02</internalNodes>
          <leafValues>
            5.3788942098617554e-01 -3.4089741110801697e-01</leafValues></_>
        <_>
          <internalNodes>
            0 -1 39 1.7847605049610138e-02</internalNodes>
          <leafValues>
            -3.5139110684394836e-01 4.6040603518486023e-01</leafValues></_>
        <_>
          <internalNodes>
            0 -1 253 -5.8372394414618611e-04</internalNodes>
          <leafValues>
            3.0446183681488037e-01 -4.2413625121116638e-01</leafValues></_>
        <_>
          <internalNodes>
            0 -1 9 4.2118020355701447e-03</internalNodes>
          <leafValues>
            -3.4022530913352966e-01 3.8900926709175110e-01</leafValues></_>
        <_>
          <internalNodes>
            0 -1 209 -5.5450340732932091e-03</internalNodes>
          <leafValues>
            1.7611736059188843e-01 -5.9560370445251465e-01</leafValues></_>
        <_>
          <internalNodes>
            0 -1 121 7.1492627263069153e-02</internalNodes>
          <leafValues>
            -2.3485149443149567e-01 5.5483442544937134e-01</leafValues></_>
        <_>
          <internalNodes>
            0 -1 26 -1.7441391944885254e-02</internalNodes>
          <leafValues>
            -6.7148190736770630e-01 2.1427734196186066e-01</leafValues></_>
        <_>
          <internalNodes>
            0 -1 275 8.7012425065040588e-03</internalNodes>
          <leafValues>
            -2.8045830130577087e-01 3.7122192978858948e-01</leafValues></_>
        <_>
          <internalNodes>
            0 -1 115 4.9458250403404236e-02</internalNodes>
          <leafValues>
            -3.4777128696441650e-01 3.1163486838340759e-01</leafValues></_>
        <_>
          <internalNodes>
            0 -1 245 -2.2875312715768814e-02</internalNodes>
          <leafValues>
            2.1333351731300354e-01 -4.3725430965423584e-01</leafValues></_>
        <_>
          <internalNodes>
            0 -1 226 4.6877139247953892e-03</internalNodes>
          <leafValues>
            -2.2479981184005737e-01 3.8734570145606995e-01</leafValues></_>
        <_>
          <internalNodes>
            0 -1 225 5.9944037348031998e-03</internalNodes>
          <leafValues>
            -2.0443513989448547e-01 5.5775243043899536e-01</leafValues></_>
        <_>
          <internalNodes>
            0 -1 88 9.7663616761565208e-03</internalNodes>
          <leafValues>
            1.1424627900123596e-01 -8.8600879907608032e-01</leafValues></_></weakClassifiers></_>
    <!-- stage 3 -->
    <_>
      <maxWeakCount>20</maxWeakCount>
      <stageThreshold>-1.1577255725860596e+00</stageThreshold>
      <weakClassifiers>
        <_>
          <internalNodes>
            0 -1 134 -1.2523088604211807e-02</internalNodes>
          <leafValues>
            4.8416009545326233e-01 -6.1516034603118896e-01</leafValues></_>
        <_>
          <internalNodes>
            0 -1 192 4.7204397618770599e-02</internalNodes>
          <leafValues>
            -5.6201374530792236e-01 3.0963599681854248e-01</leafValues></_>
        <_>
          <internalNodes>
            0 -1 183 -9.7839366644620895e-03</internalNodes>
          <leafValues>
            4.8724001646041870e-01 -3.5928049683570862e-01</leafValues></_>
        <_>
          <internalNodes>
            0 -1 164 2.5070114061236382e-02</internalNodes>
          <leafValues>
            -3.1004250049591064e-01 4.6278646588325500e-01</leafValues></_>
        <_>
          <internalNodes>
            0 -1 230 1.9573764875531197e-02</internalNodes>
          <leafValues>
            -2.6571178436279297e-01 5.1099938154220581e-01</leafValues></_>
        <_>
          <internalNodes>
            0 -1 108 2.4096579290926456e-03</internalNodes>
          <leafValues>
            -3.7812995910644531e-01 3.0445238947868347e-01</leafValues></_>
        <_>
          <internalNodes>
            0 -1 5 1.0276416316628456e-02</internalNodes>
          <leafValues>
            -2.3577682673931122e-01 5.1793575286865234e-01</leafValues></_>
        <_>
          <internalNodes>
            0 -1 48 1.4856540597975254e-02</internalNodes>
          <leafValues>
            1.5449072420597076e-01 -7.9895126819610596e-01</leafValues></_>
        <_>
          <internalNodes>
            0 -1 170 -2.1268218755722046e-02</internalNodes>
          <leafValues>
            3.6619600653648376e-01 -2.7564695477485657e-01</leafValues></_>
        <_>
          <internalNodes>
            0 -1 172 6.3378680497407913e-03</internalNodes>
          <leafValues>
            -2.7315244078636169e-01 3.4155288338661194e-01</leafValues></_>
        <_>
          <internalNodes>
            0 -1 176 7.7661601826548576e-03</internalNodes>
          <leafValues>
            1.4838920533657074e-01 -6.8009150028228760e-01</leafValues></_>
        <_>
          <internalNodes>
            0 -1 177 -7.9528167843818665e-03</internalNodes>
          <leafValues>
            9.8224714398384094e-02 -8.0439937114715576e-01</leafValues></_>
        <_>
          <internalNodes>
            0 -1 195 1.3063378632068634e-02</internalNodes>
          <leafValues>
            -2.1080893278121948e-01 4.2093142867088318e-01</leafValues></_>
        <_>
          <internalNodes>
            0 -1 33 -7.3189651593565941e-03</internalNodes>
          <leafValues>
            3.3789229393005371e-01 -2.2911818325519562e-01</leafValues></_>
        <_>
          <internalNodes>
            0 -1 16 1.2448148429393768e-01</internalNodes>
          <leafValues>
            -1.5797017514705658e-01 4.8449626564979553e-01</leafValues></_>
        <_>
          <internalNodes>
            0 -1 51 -2.3493554443120956e-02</internalNodes>
          <leafValues>
            -6.5871620178222656e-01 1.2940819561481476e-01</leafValues></_>
        <_>
          <internalNodes>
            0 -1 223 1.6234053671360016e-01</internalNodes>
          <leafValues>
            -1.8479247391223907e-01 4.9875611066818237e-01</leafValues></_>
        <_>
          <internalNodes>
            0 -1 214 6.3319080509245396e-03</internalNodes>
          <leafValues>
            1.0343933105468750e-01 -7.8306150436401367e-01</leafValues></_>
        <_>
          <internalNodes>
            0 -1 59 -6.8897237069904804e-03</internalNodes>
          <leafValues>
            -7.4061650037765503e-01 8.4076598286628723e-02</leafValues></_>
        <_>
          <internalNodes>
            0 -1 59 7.1909707039594650e-03</internalNodes>
          <leafValues>
            1.1044515669345856e-01 -7.0522332191467285e-01</leafValues></_></weakClassifiers></_>
    <!-- stage 4 -->
    <_>
      <maxWeakCount>25</maxWeakCount>
      <stageThreshold>-1.1498092412948608e+00</stageThreshold>
      <weakClassifiers>
        <_>
          <internalNodes>
            0 -1 74 3.2591307535767555e-03</internalNodes>
          <leafValues>
            -3.4464341402053833e-01 5.1595157384872437e-01</leafValues></_>
        <_>
          <internalNodes>
            0 -1 21 -4.7667793929576874e-02</internalNodes>
          <leafValues>
            3.0018961429595947e-01 -4.8771408200263977e-01</leafValues></_>
        <_>
          <internalNodes>
            0 -1 47 -8.1378035247325897e-04</internalNodes>
          <leafValues>
            2.8974655270576477e-01 -5.6919580698013306e-01</leafValues></_>
        <_>
          <internalNodes>
            0 -1 269 -3.1441710889339447e-03</internalNodes>
          <leafValues>
            3.7819260358810425e-01 -2.9111501574516296e-01</leafValues></_>
        <_>
          <internalNodes>
            0 -1 186 5.1308227702975273e-03</internalNodes>
          <leafValues>
            -2.4511122703552246e-01 4.2694011330604553e-01</leafValues></_>
        <_>
          <internalNodes>
            0 -1 271 -4.0350757539272308e-02</internalNodes>
          <leafValues>
            2.6056748628616333e-01 -3.4693405032157898e-01</leafValues></_>
        <_>
          <internalNodes>
            0 -1 101 1.4241649769246578e-03</internalNodes>
          <leafValues>
            -4.3691593408584595e-01 2.0130898058414459e-01</leafValues></_>
        <_>
          <internalNodes>
            0 -1 237 -1.3094261288642883e-02</internalNodes>
          <leafValues>
            4.3046876788139343e-01 -2.4212354421615601e-01</leafValues></_>
        <_>
          <internalNodes>
            0 -1 67 -4.6133790165185928e-03</internalNodes>
          <leafValues>
            1.5037713944911957e-01 -6.1903494596481323e-01</leafValues></_>
        <_>
          <internalNodes>
            0 -1 204 2.4653827771544456e-02</internalNodes>
          <leafValues>
            -2.2363728284835815e-01 4.4436785578727722e-01</leafValues></_>
        <_>
          <internalNodes>
            0 -1 135 8.1279892474412918e-03</internalNodes>
          <leafValues>
            -6.8637889623641968e-01 1.2661190330982208e-01</leafValues></_>
        <_>
          <internalNodes>
            0 -1 151 1.2992963194847107e-02</internalNodes>
          <leafValues>
            7.8953593969345093e-02 -7.1651613712310791e-01</leafValues></_>
        <_>
          <internalNodes>
            0 -1 193 -5.2072657272219658e-03</internalNodes>
          <leafValues>
            3.1032508611679077e-01 -2.0117594301700592e-01</leafValues></_>
        <_>
          <internalNodes>
            0 -1 220 -1.2379376217722893e-02</internalNodes>
          <leafValues>
            -7.2540903091430664e-01 8.5921764373779297e-02</leafValues></_>
        <_>
          <internalNodes>
            0 -1 58 -2.7693912386894226e-02</internalNodes>
          <leafValues>
            -8.6462277173995972e-01 5.6192159652709961e-02</leafValues></_>
        <_>
          <internalNodes>
            0 -1 85 2.4843592196702957e-02</internalNodes>
          <leafValues>
            8.8754594326019287e-02 -5.8908963203430176e-01</leafValues></_>
        <_>
          <internalNodes>
            0 -1 130 5.9888657415285707e-04</internalNodes>
          <leafValues>
            -2.7681085467338562e-01 2.3954214155673981e-01</leafValues></_>
        <_>
          <internalNodes>
            0 -1 268 1.9191226363182068e-01</internalNodes>
          <leafValues>
            -9.6992425620555878e-02 6.2938445806503296e-01</leafValues></_>
        <_>
          <internalNodes>
            0 -1 262 -9.0480521321296692e-03</internalNodes>
          <leafValues>
            2.2313399612903595e-01 -2.8887051343917847e-01</leafValues></_>
        <_>
          <internalNodes>
            0 -1 20 2.4979882873594761e-03</internalNodes>
          <leafValues>
            -2.4255529046058655e-01 2.3710300028324127e-01</leafValues></_>
        <_>
          <internalNodes>
            0 -1 278 -3.5970270633697510e-02</internalNodes>
          <leafValues>
            6.2376618385314941e-01 -9.5528192818164825e-02</leafValues></_>
        <_>
          <internalNodes>
            0 -1 29 -3.9943531155586243e-03</internalNodes>
          <leafValues>
            2.5621688365936279e-01 -2.1767741441726685e-01</leafValues></_>
        <_>
          <internalNodes>
            0 -1 234 -6.0135601088404655e-03</internalNodes>
          <leafValues>
            -7.8022509813308716e-01 7.0580326020717621e-02</leafValues></_>
        <_>
          <internalNodes>
            0 -1 7 4.8293694853782654e-03</internalNodes>
          <leafValues>
            -1.6978824138641357e-01 3.9177960157394409e-01</leafValues></_>
        <_>
          <internalNodes>
            0 -1 27 -9.2524334788322449e-02</internalNodes>
          <leafValues>
            -7.4816137552261353e-01 8.7978646159172058e-02</leafValues></_></weakClassifiers></_>
    <!-- stage 5 -->
    <_>
      <maxWeakCount>30</maxWeakCount>
      <stageThreshold>-1.1388323307037354e+00</stageThreshold>
      <weakClassifiers>
        <_>
          <internalNodes>
            0 -1 54 3.3864397555589676e-03</internalNodes>
          <leafValues>
            4.4009596109390259e-01 -5.2346569299697876e-01</leafValues></_>
        <_>
          <internalNodes>
            0 -1 10 9.4082564115524292e-02</internalNodes>
          <leafValues>
            -4.0118861198425293e-01 2.8735017776489258e-01</leafValues></_>
        <_>
          <internalNodes>
            0 -1 224 6.5359921427443624e-04</internalNodes>
          <leafValues>
            -3.1047126650810242e-01 3.2753503322601318e-01</leafValues></_>
        <_>
          <internalNodes>
            0 -1 239 -4.8129274509847164e-03</internalNodes>
          <leafValues>
            1.3063359260559082e-01 -6.2395918369293213e-01</leafValues></_>
        <_>
          <internalNodes>
            0 -1 114 8.4679931402206421e-02</internalNodes>
          <leafValues>
            -2.5631275773048401e-01 3.2481136918067932e-01</leafValues></_>
        <_>
          <internalNodes>
            0 -1 226 6.1527471989393234e-03</internalNodes>
          <leafValues>
            -2.2071312367916107e-01 3.9053153991699219e-01</leafValues></_>
        <_>
          <internalNodes>
            0 -1 136 6.6251144744455814e-03</internalNodes>
          <leafValues>
            -2.8397822380065918e-01 3.2747358083724976e-01</leafValues></_>
        <_>
          <internalNodes>
            0 -1 253 -3.1277077505365014e-04</internalNodes>
          <leafValues>
            1.8378905951976776e-01 -3.6879739165306091e-01</leafValues></_>
        <_>
          <internalNodes>
            0 -1 77 1.3817274942994118e-02</internalNodes>
          <leafValues>
            -2.3336385190486908e-01 2.9177033901214600e-01</leafValues></_>
        <_>
          <internalNodes>
            0 -1 175 2.2562641650438309e-02</internalNodes>
          <leafValues>
            1.0963653028011322e-01 -6.7465788125991821e-01</leafValues></_>
        <_>
          <internalNodes>
            0 -1 82 3.6225635558366776e-03</internalNodes>
          <leafValues>
            -3.3948081731796265e-01 1.8797416985034943e-01</leafValues></_>
        <_>
          <internalNodes>
            0 -1 95 -4.6179600059986115e-02</internalNodes>
          <leafValues>
            -7.0810508728027344e-01 9.5496051013469696e-02</leafValues></_>
        <_>
          <internalNodes>
            0 -1 88 -1.7214685678482056e-02</internalNodes>
          <leafValues>
            -8.2498472929000854e-01 8.3705149590969086e-02</leafValues></_>
        <_>
          <internalNodes>
            0 -1 22 -8.8555261027067900e-04</internalNodes>
          <leafValues>
            9.8891101777553558e-02 -5.1223051548004150e-01</leafValues></_>
        <_>
          <internalNodes>
            0 -1 118 -2.2578589618206024e-02</internalNodes>
          <leafValues>
            3.6040818691253662e-01 -1.5993753075599670e-01</leafValues></_>
        <_>
          <internalNodes>
            0 -1 50 2.5582207366824150e-02</internalNodes>
          <leafValues>
            8.7561003863811493e-02 -7.1726369857788086e-01</leafValues></_>
        <_>
          <internalNodes>
            0 -1 104 9.6188634634017944e-03</internalNodes>
          <leafValues>
            7.2469636797904968e-02 -7.0028734207153320e-01</leafValues></_>
        <_>
          <internalNodes>
            0 -1 167 -6.5292185172438622e-03</internalNodes>
          <leafValues>
            -7.3436444997787476e-01 5.9579052031040192e-02</leafValues></_>
        <_>
          <internalNodes>
            0 -1 108 3.0089742504060268e-03</internalNodes>
          <leafValues>
            -2.5844696164131165e-01 2.3266275227069855e-01</leafValues></_>
        <_>
          <internalNodes>
            0 -1 235 3.2853870652616024e-03</internalNodes>
          <leafValues>
            -2.5972148776054382e-01 2.2816367447376251e-01</leafValues></_>
        <_>
          <internalNodes>
            0 -1 61 3.6041589919477701e-03</internalNodes>
          <leafValues>
            6.8625263869762421e-02 -6.9685322046279907e-01</leafValues></_>
        <_>
          <internalNodes>
            0 -1 273 1.1265662498772144e-02</internalNodes>
          <leafValues>
            -2.1305917203426361e-01 2.6056534051895142e-01</leafValues></_>
        <_>
          <internalNodes>
            0 -1 2 1.7501980066299438e-02</internalNodes>
          <leafValues>
            -1.4886257052421570e-01 3.6818334460258484e-01</leafValues></_>
        <_>
          <internalNodes>
            0 -1 30 -2.1291882731020451e-03</internalNodes>
          <leafValues>
            -4.3685331940650940e-01 1.3283994793891907e-01</leafValues></_>
        <_>
          <internalNodes>
            0 -1 71 1.2315631844103336e-02</internalNodes>
          <leafValues>
            5.8635301887989044e-02 -8.0093085765838623e-01</leafValues></_>
        <_>
          <internalNodes>
            0 -1 246 -4.1124634444713593e-03</internalNodes>
          <leafValues>
            9.5815055072307587e-02 -4.6848630905151367e-01</leafValues></_>
        <_>
          <internalNodes>
            0 -1 259 -1.2562912888824940e-02</internalNodes>
          <leafValues>
            -7.4203139543533325e-01 6.1686400324106216e-02</leafValues></_>
        <_>
          <internalNodes>
            0 -1 143 -1.3337358832359314e-02</internalNodes>
          <leafValues>
            -6.7423516511917114e-01 6.0700714588165283e-02</leafValues></_>
        <_>
          <internalNodes>
            0 -1 254 -6.7265252582728863e-03</internalNodes>
          <leafValues>
            5.2172636985778809e-01 -1.1047651618719101e-01</leafValues></_>
        <_>
          <internalNodes>
            0 -1 19 -2.7084343601018190e-03</internalNodes>
          <leafValues>
            2.4866099655628204e-01 -2.3502692580223083e-01</leafValues></_></weakClassifiers></_>
    <!-- stage 6 -->
    <_>
      <maxWeakCount>39</maxWeakCount>
      <stageThreshold>-1.1214191913604736e+00</stageThreshold>
      <weakClassifiers>
        <_>
          <internalNodes>
            0 -1 270 -5.5611496791243553e-03</internalNodes>
          <leafValues>
            6.0074120759963989e-01 1.9840694963932037e-02</leafValues></_>
        <_>
          <internalNodes>
            0 -1 158 -9.1166999191045761e-03</internalNodes>
          <leafValues>
            4.9901071190834045e-01 -1.8414227664470673e-01</leafValues></_>
        <_>
          <internalNodes>
            0 -1 119 1.9370600581169128e-02</internalNodes>
          <leafValues>
            -3.0366271734237671e-01 2.8362235426902771e-01</leafValues></_>
        <_>
          <internalNodes>
            0 -1 185 -9.9230315536260605e-03</internalNodes>
          <leafValues>
            4.2411532998085022e-01 -2.3018372058868408e-01</leafValues></_>
        <_>
          <internalNodes>
            0 -1 205 2.2051949054002762e-03</internalNodes>
          <leafValues>
            -2.2206442058086395e-01 2.8587234020233154e-01</leafValues></_>
        <_>
          <internalNodes>
            0 -1 291 -1.9001461565494537e-02</internalNodes>
          <leafValues>
            5.5092811584472656e-01 -1.2884724140167236e-01</leafValues></_>
        <_>
          <internalNodes>
            0 -1 282 1.1118785478174686e-02</internalNodes>
          <leafValues>
            -1.6223599016666412e-01 4.5699438452720642e-01</leafValues></_>
        <_>
          <internalNodes>
            0 -1 255 -1.3904843479394913e-02</internalNodes>
          <leafValues>
            4.2476665973663330e-01 -1.3976432383060455e-01</leafValues></_>
        <_>
          <internalNodes>
            0 -1 156 -1.1844483378808945e-04</internalNodes>
          <leafValues>
            1.2595152854919434e-01 -5.4078280925750732e-01</leafValues></_>
        <_>
          <internalNodes>
            0 -1 35 5.6309602223336697e-03</internalNodes>
          <leafValues>
            8.5709162056446075e-02 -6.9102454185485840e-01</leafValues></_>
        <_>
          <internalNodes>
            0 -1 14 4.0444172918796539e-02</internalNodes>
          <leafValues>
            -2.9171675443649292e-01 2.1176655590534210e-01</leafValues></_>
        <_>
          <internalNodes>
            0 -1 56 6.5467897802591324e-03</internalNodes>
          <leafValues>
            1.1011300235986710e-01 -6.1189877986907959e-01</leafValues></_>
        <_>
          <internalNodes>
            0 -1 28 -2.6821121573448181e-02</internalNodes>
          <leafValues>
            -6.4320957660675049e-01 6.1167921870946884e-02</leafValues></_>
        <_>
          <internalNodes>
            0 -1 79 -1.0909879580140114e-02</internalNodes>
          <leafValues>
            8.3009123802185059e-02 -5.6822276115417480e-01</leafValues></_>
        <_>
          <internalNodes>
            0 -1 295 -1.4797167852520943e-02</internalNodes>
          <leafValues>
            3.7223005294799805e-01 -1.4504797756671906e-01</leafValues></_>
        <_>
          <internalNodes>
            0 -1 173 1.2805642560124397e-02</internalNodes>
          <leafValues>
            8.2545876502990723e-02 -7.0667082071304321e-01</leafValues></_>
        <_>
          <internalNodes>
            0 -1 117 -5.3322827443480492e-03</internalNodes>
          <leafValues>
            -5.9803622961044312e-01 6.9739535450935364e-02</leafValues></_>
        <_>
          <internalNodes>
            0 -1 215 1.0178083553910255e-02</internalNodes>
          <leafValues>
            6.7274235188961029e-02 -6.4712691307067871e-01</leafValues></_>
        <_>
          <internalNodes>
            0 -1 148 -1.8122550100088120e-02</internalNodes>
          <leafValues>
            -7.4829822778701782e-01 5.8414094150066376e-02</leafValues></_>
        <_>
          <internalNodes>
            0 -1 279 9.8216077312827110e-03</internalNodes>
          <leafValues>
            -1.4148792624473572e-01 3.4376224875450134e-01</leafValues></_>
        <_>
          <internalNodes>
            0 -1 236 -5.2249347791075706e-03</internalNodes>
          <leafValues>
            -6.3728845119476318e-01 7.7060364186763763e-02</leafValues></_>
        <_>
          <internalNodes>
            0 -1 287 -2.1197171881794930e-02</internalNodes>
          <leafValues>
            5.9634262323379517e-01 -8.3224803209304810e-02</leafValues></_>
        <_>
          <internalNodes>
            0 -1 163 -2.6290887035429478e-03</internalNodes>
          <leafValues>
            3.1897118687629700e-01 -1.3640610873699188e-01</leafValues></_>
        <_>
          <internalNodes>
            0 -1 102 1.3367600040510297e-03</internalNodes>
          <leafValues>
            -2.9496720433235168e-01 1.6424199938774109e-01</leafValues></_>
        <_>
          <internalNodes>
            0 -1 94 1.4697917737066746e-02</internalNodes>
          <leafValues>
            5.2716299891471863e-02 -8.0913251638412476e-01</leafValues></_>
        <_>
          <internalNodes>
            0 -1 225 8.1145744770765305e-03</internalNodes>
          <leafValues>
            -1.3844312727451324e-01 3.8046681880950928e-01</leafValues></_>
        <_>
          <internalNodes>
            0 -1 189 6.5350593067705631e-03</internalNodes>
          <leafValues>
            -1.2912572920322418e-01 3.8832581043243408e-01</leafValues></_>
        <_>
          <internalNodes>
            0 -1 219 9.9184522405266762e-03</internalNodes>
          <leafValues>
            6.0719210654497147e-02 -7.4479526281356812e-01</leafValues></_>
        <_>
          <internalNodes>
            0 -1 5 1.0681206360459328e-02</internalNodes>
          <leafValues>
            -1.5062327682971954e-01 3.0008572340011597e-01</leafValues></_>
        <_>
          <internalNodes>
            0 -1 3 -1.4922194182872772e-02</internalNodes>
          <leafValues>
            4.5954725146293640e-01 -1.2225645035505295e-01</leafValues></_>
        <_>
          <internalNodes>
            0 -1 244 -2.9934670776128769e-02</internalNodes>
          <leafValues>
            -5.6968551874160767e-01 8.5307374596595764e-02</leafValues></_>
        <_>
          <internalNodes>
            0 -1 157 1.5514144301414490e-01</internalNodes>
          <leafValues>
            -1.4622782170772552e-01 3.3021044731140137e-01</leafValues></_>
        <_>
          <internalNodes>
            0 -1 265 -2.4099722504615784e-02</internalNodes>
          <leafValues>
            2.2289067506790161e-01 -2.3113967478275299e-01</leafValues></_>
        <_>
          <internalNodes>
            0 -1 249 -4.7020182013511658e-02</internalNodes>
          <leafValues>
            -6.2362152338027954e-01 8.7098605930805206e-02</leafValues></_>
        <_>
          <internalNodes>
            0 -1 64 8.9270004536956549e-05</internalNodes>
          <leafValues>
            -3.1057095527648926e-01 1.4192904531955719e-01</leafValues></_>
        <_>
          <internalNodes>
            0 -1 153 8.6375512182712555e-03</internalNodes>
          <leafValues>
            -1.3345229625701904e-01 3.1999978423118591e-01</leafValues></_>
        <_>
          <internalNodes>
            0 -1 59 9.5501542091369629e-03</internalNodes>
          <leafValues>
            6.5679177641868591e-02 -7.3503851890563965e-01</leafValues></_>
        <_>
          <internalNodes>
            0 -1 17 1.2020643055438995e-01</internalNodes>
          <leafValues>
            -1.1946169286966324e-01 3.6855438351631165e-01</leafValues></_>
        <_>
          <internalNodes>
            0 -1 80 -1.2437149416655302e-04</internalNodes>
          <leafValues>
            1.7668186128139496e-01 -2.6523330807685852e-01</leafValues></_></weakClassifiers></_>
    <!-- stage 7 -->
    <_>
      <maxWeakCount>43</maxWeakCount>
      <stageThreshold>-1.0989581346511841e+00</stageThreshold>
      <weakClassifiers>
        <_>
          <internalNodes>
            0 -1 181 -2.2591063752770424e-03</internalNodes>
          <leafValues>
            5.4086923599243164e-01 -8.5748791694641113e-02</leafValues></_>
        <_>
          <internalNodes>
            0 -1 161 -2.7432862669229507e-02</internalNodes>
          <leafValues>
            5.8182072639465332e-01 -1.1061123758554459e-01</leafValues></_>
        <_>
          <internalNodes>
            0 -1 158 -1.1700401082634926e-02</internalNodes>
          <leafValues>
            5.2836799621582031e-01 -1.1974221467971802e-01</leafValues></_>
        <_>
          <internalNodes>
            0 -1 203 -1.9872099161148071e-02</internalNodes>
          <leafValues>
            2.6122543215751648e-01 -2.5689607858657837e-01</leafValues></_>
        <_>
          <internalNodes>
            0 -1 109 5.1610353402793407e-03</internalNodes>
          <leafValues>
            -3.3474925160408020e-01 2.4757376313209534e-01</leafValues></_>
        <_>
          <internalNodes>
            0 -1 217 3.3859461545944214e-03</internalNodes>
          <leafValues>
            -1.7375873029232025e-01 3.1037956476211548e-01</leafValues></_>
        <_>
          <internalNodes>
            0 -1 84 -1.9479293376207352e-02</internalNodes>
          <leafValues>
            -6.7506313323974609e-01 8.3649203181266785e-02</leafValues></_>
        <_>
          <internalNodes>
            0 -1 6 3.2049117144197226e-03</internalNodes>
          <leafValues>
            -2.8671267628669739e-01 1.6940370202064514e-01</leafValues></_>
        <_>
          <internalNodes>
            0 -1 271 -2.0844541490077972e-02</internalNodes>
          <leafValues>
            1.4811128377914429e-01 -3.6508265137672424e-01</leafValues></_>
        <_>
          <internalNodes>
            0 -1 76 6.6336736083030701e-02</internalNodes>
          <leafValues>
            -1.5653528273105621e-01 3.3826526999473572e-01</leafValues></_>
        <_>
          <internalNodes>
            0 -1 260 -1.3379870355129242e-01</internalNodes>
          <leafValues>
            2.5866124033927917e-01 -1.9994293153285980e-01</leafValues></_>
        <_>
          <internalNodes>
            0 -1 11 1.0692563652992249e-01</internalNodes>
          <leafValues>
            -1.0031328350305557e-01 5.3999358415603638e-01</leafValues></_>
        <_>
          <internalNodes>
            0 -1 191 -1.6424130648374557e-02</internalNodes>
          <leafValues>
            5.9130293130874634e-01 -7.8362226486206055e-02</leafValues></_>
        <_>
          <internalNodes>
            0 -1 284 -5.4216004908084869e-02</internalNodes>
          <leafValues>
            5.6225520372390747e-01 -7.9602628946304321e-02</leafValues></_>
        <_>
          <internalNodes>
            0 -1 252 -1.5783442184329033e-02</internalNodes>
          <leafValues>
            3.6498633027076721e-01 -1.3920654356479645e-01</leafValues></_>
        <_>
          <internalNodes>
            0 -1 98 1.4058764092624187e-02</internalNodes>
          <leafValues>
            7.4199035763740540e-02 -6.3160294294357300e-01</leafValues></_>
        <_>
          <internalNodes>
            0 -1 153 -3.2664306461811066e-02</internalNodes>
          <leafValues>
            5.8930683135986328e-01 -8.2202039659023285e-02</leafValues></_>
        <_>
          <internalNodes>
            0 -1 133 1.7006809357553720e-03</internalNodes>
          <leafValues>
            -2.0790988206863403e-01 2.2307498753070831e-01</leafValues></_>
        <_>
          <internalNodes>
            0 -1 1 -1.5557577833533287e-02</internalNodes>
          <leafValues>
            4.3066531419754028e-01 -1.0889764875173569e-01</leafValues></_>
        <_>
          <internalNodes>
            0 -1 0 4.8932403326034546e-02</internalNodes>
          <leafValues>
            -1.1623931676149368e-01 3.7069180607795715e-01</leafValues></_>
        <_>
          <internalNodes>
            0 -1 179 6.0356119647622108e-03</internalNodes>
          <leafValues>
            6.6823728382587433e-02 -6.6164207458496094e-01</leafValues></_>
        <_>
          <internalNodes>
            0 -1 138 -3.1992606818675995e-02</internalNodes>
          <leafValues>
            -4.5409113168716431e-01 8.4603659808635712e-02</leafValues></_>
        <_>
          <internalNodes>
            0 -1 188 -1.3974431203678250e-03</internalNodes>
          <leafValues>
            1.1827231943607330e-01 -3.6400800943374634e-01</leafValues></_>
        <_>
          <internalNodes>
            0 -1 81 -5.3194887004792690e-03</internalNodes>
          <leafValues>
            2.6634734869003296e-01 -1.7144781351089478e-01</leafValues></_>
        <_>
          <internalNodes>
            0 -1 126 -4.0496182627975941e-03</internalNodes>
          <leafValues>
            1.0274469107389450e-01 -4.7526407241821289e-01</leafValues></_>
        <_>
          <internalNodes>
            0 -1 90 1.7981606069952250e-03</internalNodes>
          <leafValues>
            -2.5630927085876465e-01 1.7603471875190735e-01</leafValues></_>
        <_>
          <internalNodes>
            0 -1 44 1.0039947926998138e-01</internalNodes>
          <leafValues>
            6.5555796027183533e-02 -6.8177914619445801e-01</leafValues></_>
        <_>
          <internalNodes>
            0 -1 24 1.3298764824867249e-03</internalNodes>
          <leafValues>
            1.3259924948215485e-01 -3.1512510776519775e-01</leafValues></_>
        <_>
          <internalNodes>
            0 -1 31 -3.9423026144504547e-02</internalNodes>
          <leafValues>
            -6.5994656085968018e-01 6.4202137291431427e-02</leafValues></_>
        <_>
          <internalNodes>
            0 -1 123 -1.3252932578325272e-02</internalNodes>
          <leafValues>
            -5.0015985965728760e-01 7.8258685767650604e-02</leafValues></_>
        <_>
          <internalNodes>
            0 -1 168 -1.1752184480428696e-02</internalNodes>
          <leafValues>
            -8.3305794000625610e-01 4.5015953481197357e-02</leafValues></_>
        <_>
          <internalNodes>
            0 -1 240 -5.0143641419708729e-03</internalNodes>
          <leafValues>
            -5.8031499385833740e-01 5.8030746877193451e-02</leafValues></_>
        <_>
          <internalNodes>
            0 -1 274 1.2020173016935587e-03</internalNodes>
          <leafValues>
            -2.1784491837024689e-01 1.8501657247543335e-01</leafValues></_>
        <_>
          <internalNodes>
            0 -1 69 1.3276456156745553e-03</internalNodes>
          <leafValues>
            -2.4335342645645142e-01 1.7792472243309021e-01</leafValues></_>
        <_>
          <internalNodes>
            0 -1 41 3.0905764549970627e-02</internalNodes>
          <leafValues>
            -1.1281412839889526e-01 4.0354645252227783e-01</leafValues></_>
        <_>
          <internalNodes>
            0 -1 116 6.6415690816938877e-03</internalNodes>
          <leafValues>
            6.5716616809368134e-02 -7.3661637306213379e-01</leafValues></_>
        <_>
          <internalNodes>
            0 -1 289 9.4187743961811066e-03</internalNodes>
          <leafValues>
            -1.0496721416711807e-01 4.2816188931465149e-01</leafValues></_>
        <_>
          <internalNodes>
            0 -1 286 3.5188195761293173e-03</internalNodes>
          <leafValues>
            -1.6437098383903503e-01 2.9703167080879211e-01</leafValues></_>
        <_>
          <internalNodes>
            0 -1 241 1.0865869000554085e-02</internalNodes>
          <leafValues>
            7.4978411197662354e-02 -5.8875918388366699e-01</leafValues></_>
        <_>
          <internalNodes>
            0 -1 111 6.8134041503071785e-03</internalNodes>
          <leafValues>
            5.7248808443546295e-02 -6.1003071069717407e-01</leafValues></_>
        <_>
          <internalNodes>
            0 -1 32 -1.5116131305694580e-01</internalNodes>
          <leafValues>
            -7.5190412998199463e-01 4.7474641352891922e-02</leafValues></_>
        <_>
          <internalNodes>
            0 -1 280 6.8645933642983437e-03</internalNodes>
          <leafValues>
            -1.4428259432315826e-01 2.8554651141166687e-01</leafValues></_>
        <_>
          <internalNodes>
            0 -1 52 -9.9988453090190887e-02</internalNodes>
          <leafValues>
            -6.4494442939758301e-01 5.9882327914237976e-02</leafValues></_></weakClassifiers></_>
    <!-- stage 8 -->
    <_>
      <maxWeakCount>50</maxWeakCount>
      <stageThreshold>-1.0660389661788940e+00</stageThreshold>
      <weakClassifiers>
        <_>
          <internalNodes>
            0 -1 137 -1.7237860709428787e-02</internalNodes>
          <leafValues>
            5.7551443576812744e-01 7.6034650206565857e-02</leafValues></_>
        <_>
          <internalNodes>
            0 -1 165 3.6361068487167358e-02</internalNodes>
          <leafValues>
            -1.8383730947971344e-01 4.2623949050903320e-01</leafValues></_>
        <_>
          <internalNodes>
            0 -1 253 -8.6121819913387299e-04</internalNodes>
          <leafValues>
            2.0809647440910339e-01 -3.3205103874206543e-01</leafValues></_>
        <_>
          <internalNodes>
            0 -1 192 5.5769730359315872e-02</internalNodes>
          <leafValues>
            -3.5578790307044983e-01 1.6090078651905060e-01</leafValues></_>
        <_>
          <internalNodes>
            0 -1 206 4.4046593829989433e-03</internalNodes>
          <leafValues>
            -2.9875022172927856e-01 1.7026667296886444e-01</leafValues></_>
        <_>
          <internalNodes>
            0 -1 216 -1.1506089009344578e-02</internalNodes>
          <leafValues>
            1.3489894568920135e-01 -4.3562564253807068e-01</leafValues></_>
        <_>
          <internalNodes>
            0 -1 8 2.1155998110771179e-03</internalNodes>
          <leafValues>
            -2.8708475828170776e-01 1.6554713249206543e-01</leafValues></_>
        <_>
          <internalNodes>
            0 -1 18 4.9422346055507660e-02</internalNodes>
          <leafValues>
            -2.7238613367080688e-01 1.7463904619216919e-01</leafValues></_>
        <_>
          <internalNodes>
            0 -1 107 2.4854751303792000e-02</internalNodes>
          <leafValues>
            -2.3694513738155365e-01 1.9668211042881012e-01</leafValues></_>
        <_>
          <internalNodes>
            0 -1 88 7.4061010964214802e-03</internalNodes>
          <leafValues>
            7.1123115718364716e-02 -7.0979225635528564e-01</leafValues></_>
        <_>
          <internalNodes>
            0 -1 256 1.4277516864240170e-02</internalNodes>
          <leafValues>
            -1.6356125473976135e-01 2.9064738750457764e-01</leafValues></_>
        <_>
          <internalNodes>
            0 -1 213 -4.2195841670036316e-03</internalNodes>
          <leafValues>
            -6.2925070524215698e-01 6.9630570709705353e-02</leafValues></_>
        <_>
          <internalNodes>
            0 -1 237 -1.1703765019774437e-02</internalNodes>
          <leafValues>
            2.5733456015586853e-01 -1.6663350164890289e-01</leafValues></_>
        <_>
          <internalNodes>
            0 -1 218 -4.5677400194108486e-03</internalNodes>
          <leafValues>
            2.3253212869167328e-01 -1.8944090604782104e-01</leafValues></_>
        <_>
          <internalNodes>
            0 -1 221 -2.1024752408266068e-02</internalNodes>
          <leafValues>
            -7.7058458328247070e-01 4.9862205982208252e-02</leafValues></_>
        <_>
          <internalNodes>
            0 -1 156 4.2128199711441994e-03</internalNodes>
          <leafValues>
            6.8270929157733917e-02 -5.9033238887786865e-01</leafValues></_>
        <_>
          <internalNodes>
            0 -1 59 -6.1119655147194862e-03</internalNodes>
          <leafValues>
            -6.1867344379425049e-01 6.0819223523139954e-02</leafValues></_>
        <_>
          <internalNodes>
            0 -1 78 1.4573037624359131e-02</internalNodes>
          <leafValues>
            7.2569891810417175e-02 -4.9933198094367981e-01</leafValues></_>
        <_>
          <internalNodes>
            0 -1 124 -9.5063615590333939e-03</internalNodes>
          <leafValues>
            -3.7158444523811340e-01 1.0423039644956589e-01</leafValues></_>
        <_>
          <internalNodes>
            0 -1 105 -2.6899524964392185e-03</internalNodes>
          <leafValues>
            1.9903676211833954e-01 -2.2693859040737152e-01</leafValues></_>
        <_>
          <internalNodes>
            0 -1 196 4.8430301249027252e-03</internalNodes>
          <leafValues>
            -1.8509107828140259e-01 2.2140231728553772e-01</leafValues></_>
        <_>
          <internalNodes>
            0 -1 258 -6.2816981226205826e-03</internalNodes>
          <leafValues>
            -6.5730637311935425e-01 6.4450472593307495e-02</leafValues></_>
        <_>
          <internalNodes>
            0 -1 45 1.1026377230882645e-01</internalNodes>
          <leafValues>
            4.1278574615716934e-02 -7.0390194654464722e-01</leafValues></_>
        <_>
          <internalNodes>
            0 -1 63 -1.3943653553724289e-02</internalNodes>
          <leafValues>
            -8.5247182846069336e-01 3.3600252121686935e-02</leafValues></_>
        <_>
          <internalNodes>
            0 -1 110 -1.7235847190022469e-02</internalNodes>
          <leafValues>
            -7.0623296499252319e-01 4.0347423404455185e-02</leafValues></_>
        <_>
          <internalNodes>
            0 -1 231 1.0125229135155678e-02</internalNodes>
          <leafValues>
            -1.6710218787193298e-01 2.1690471470355988e-01</leafValues></_>
        <_>
          <internalNodes>
            0 -1 191 -1.1696060188114643e-02</internalNodes>
          <leafValues>
            4.1681787371635437e-01 -9.1528095304965973e-02</leafValues></_>
        <_>
          <internalNodes>
            0 -1 42 -1.4498770236968994e-01</internalNodes>
          <leafValues>
            -6.1906176805496216e-01 6.8526849150657654e-02</leafValues></_>
        <_>
          <internalNodes>
            0 -1 200 -6.7526809871196747e-03</internalNodes>
          <leafValues>
            -6.0337662696838379e-01 5.2800964564085007e-02</leafValues></_>
        <_>
          <internalNodes>
            0 -1 70 -6.7526353523135185e-03</internalNodes>
          <leafValues>
            2.1742174029350281e-01 -1.7227628827095032e-01</leafValues></_>
        <_>
          <internalNodes>
            0 -1 40 1.6552310436964035e-02</internalNodes>
          <leafValues>
            -1.7786937952041626e-01 2.6105776429176331e-01</leafValues></_>
        <_>
          <internalNodes>
            0 -1 149 -5.5541343986988068e-02</internalNodes>
          <leafValues>
            8.5634481906890869e-01 -4.5265898108482361e-02</leafValues></_>
        <_>
          <internalNodes>
            0 -1 87 4.6876198612153530e-03</internalNodes>
          <leafValues>
            5.4684609174728394e-02 -9.0528583526611328e-01</leafValues></_>
        <_>
          <internalNodes>
            0 -1 129 1.0773258283734322e-02</internalNodes>
          <leafValues>
            -1.2974603474140167e-01 2.9348772764205933e-01</leafValues></_>
        <_>
          <internalNodes>
            0 -1 128 3.4675835631787777e-03</internalNodes>
          <leafValues>
            -1.5742553770542145e-01 2.6756143569946289e-01</leafValues></_>
        <_>
          <internalNodes>
            0 -1 293 1.6003984957933426e-02</internalNodes>
          <leafValues>
            -7.8752130270004272e-02 4.8501965403556824e-01</leafValues></_>
        <_>
          <internalNodes>
            0 -1 282 1.6380613669753075e-02</internalNodes>
          <leafValues>
            -1.0220617800951004e-01 3.6837974190711975e-01</leafValues></_>
        <_>
          <internalNodes>
            0 -1 120 8.7925139814615250e-03</internalNodes>
          <leafValues>
            8.2105681300163269e-02 -4.9338397383689880e-01</leafValues></_>
        <_>
          <internalNodes>
            0 -1 99 -2.5613725185394287e-02</internalNodes>
          <leafValues>
            -5.9624999761581421e-01 5.7069301605224609e-02</leafValues></_>
        <_>
          <internalNodes>
            0 -1 288 1.3981914147734642e-02</internalNodes>
          <leafValues>
            -1.1964855343103409e-01 3.2596608996391296e-01</leafValues></_>
        <_>
          <internalNodes>
            0 -1 266 -3.0505955219268799e-03</internalNodes>
          <leafValues>
            3.8088712096214294e-01 -1.1505998671054840e-01</leafValues></_>
        <_>
          <internalNodes>
            0 -1 283 -2.8769480064511299e-02</internalNodes>
          <leafValues>
            2.1239051222801208e-01 -1.7972107231616974e-01</leafValues></_>
        <_>
          <internalNodes>
            0 -1 59 7.5936131179332733e-03</internalNodes>
          <leafValues>
            6.3770085573196411e-02 -6.0350763797760010e-01</leafValues></_>
        <_>
          <internalNodes>
            0 -1 83 -9.9009391851723194e-04</internalNodes>
          <leafValues>
            1.5969549119472504e-01 -2.2279103100299835e-01</leafValues></_>
        <_>
          <internalNodes>
            0 -1 208 9.7637446597218513e-03</internalNodes>
          <leafValues>
            6.0631703585386276e-02 -5.8367669582366943e-01</leafValues></_>
        <_>
          <internalNodes>
            0 -1 155 8.0316010862588882e-03</internalNodes>
          <leafValues>
            5.3276047110557556e-02 -6.1537814140319824e-01</leafValues></_>
        <_>
          <internalNodes>
            0 -1 243 2.9293902218341827e-02</internalNodes>
          <leafValues>
            3.5705786198377609e-02 -8.0899244546890259e-01</leafValues></_>
        <_>
          <internalNodes>
            0 -1 264 3.6607356742024422e-03</internalNodes>
          <leafValues>
            -1.3714343309402466e-01 2.6613494753837585e-01</leafValues></_>
        <_>
          <internalNodes>
            0 -1 161 -3.6223463714122772e-02</internalNodes>
          <leafValues>
            5.6258940696716309e-01 -6.2084402889013290e-02</leafValues></_>
        <_>
          <internalNodes>
            0 -1 36 -2.2861819714307785e-02</internalNodes>
          <leafValues>
            -6.9392889738082886e-01 5.5487047880887985e-02</leafValues></_></weakClassifiers></_>
    <!-- stage 9 -->
    <_>
      <maxWeakCount>58</maxWeakCount>
      <stageThreshold>-1.0620901584625244e+00</stageThreshold>
      <weakClassifiers>
        <_>
          <internalNodes>
            0 -1 38 -6.1495937407016754e-03</internalNodes>
          <leafValues>
            5.6268805265426636e-01 7.2892941534519196e-02</leafValues></_>
        <_>
          <internalNodes>
            0 -1 194 -6.6110556945204735e-03</internalNodes>
          <leafValues>
            2.7369958162307739e-01 -2.3132826387882233e-01</leafValues></_>
        <_>
          <internalNodes>
            0 -1 62 -5.2175946533679962e-02</internalNodes>
          <leafValues>
            1.7621523141860962e-01 -3.3528354763984680e-01</leafValues></_>
        <_>
          <internalNodes>
            0 -1 171 5.5402144789695740e-03</internalNodes>
          <leafValues>
            -2.3360311985015869e-01 2.2129502892494202e-01</leafValues></_>
        <_>
          <internalNodes>
            0 -1 182 -2.8485832735896111e-03</internalNodes>
          <leafValues>
            2.2347310185432434e-01 -2.1618117392063141e-01</leafValues></_>
        <_>
          <internalNodes>
            0 -1 12 4.3035522103309631e-02</internalNodes>
          <leafValues>
            -3.1191971898078918e-01 1.0802970826625824e-01</leafValues></_>
        <_>
          <internalNodes>
            0 -1 106 -2.3935433477163315e-02</internalNodes>
          <leafValues>
            -7.3769307136535645e-01 7.1791969239711761e-02</leafValues></_>
        <_>
          <internalNodes>
            0 -1 269 -2.8574718162417412e-03</internalNodes>
          <leafValues>
            2.3075649142265320e-01 -1.8823279440402985e-01</leafValues></_>
        <_>
          <internalNodes>
            0 -1 70 -1.0868199169635773e-02</internalNodes>
          <leafValues>
            2.8814917802810669e-01 -1.5802825987339020e-01</leafValues></_>
        <_>
          <internalNodes>
            0 -1 169 -1.9585834816098213e-02</internalNodes>
          <leafValues>
            2.5532397627830505e-01 -1.8017956614494324e-01</leafValues></_>
        <_>
          <internalNodes>
            0 -1 131 -4.3200775980949402e-03</internalNodes>
          <leafValues>
            -6.5972799062728882e-01 7.0887058973312378e-02</leafValues></_>
        <_>
          <internalNodes>
            0 -1 127 3.1741443090140820e-03</internalNodes>
          <leafValues>
            4.4625572860240936e-02 -7.3585319519042969e-01</leafValues></_>
        <_>
          <internalNodes>
            0 -1 225 9.0240407735109329e-03</internalNodes>
          <leafValues>
            -1.1654171347618103e-01 3.6627298593521118e-01</leafValues></_>
        <_>
          <internalNodes>
            0 -1 232 1.1648496612906456e-02</internalNodes>
          <leafValues>
            -1.5484748780727386e-01 2.6208052039146423e-01</leafValues></_>
        <_>
          <internalNodes>
            0 -1 233 -5.2114818245172501e-03</internalNodes>
          <leafValues>
            -8.3904999494552612e-01 5.3223367780447006e-02</leafValues></_>
        <_>
          <internalNodes>
            0 -1 226 4.8557650297880173e-03</internalNodes>
          <leafValues>
            -1.7798919975757599e-01 2.0543046295642853e-01</leafValues></_>
        <_>
          <internalNodes>
            0 -1 122 3.6279231309890747e-02</internalNodes>
          <leafValues>
            -1.0210330784320831e-01 3.7746626138687134e-01</leafValues></_>
        <_>
          <internalNodes>
            0 -1 210 -1.9925002008676529e-02</internalNodes>
          <leafValues>
            -7.3959094285964966e-01 5.8439072221517563e-02</leafValues></_>
        <_>
          <internalNodes>
            0 -1 73 1.1200144886970520e-02</internalNodes>
          <leafValues>
            3.2008670270442963e-02 -7.5466346740722656e-01</leafValues></_>
        <_>
          <internalNodes>
            0 -1 64 8.1317673902958632e-04</internalNodes>
          <leafValues>
            -2.5458899140357971e-01 1.3298732042312622e-01</leafValues></_>
        <_>
          <internalNodes>
            0 -1 267 6.5265861339867115e-03</internalNodes>
          <leafValues>
            -9.7421906888484955e-02 3.9802813529968262e-01</leafValues></_>
        <_>
          <internalNodes>
            0 -1 5 1.5647849068045616e-02</internalNodes>
          <leafValues>
            -9.6195325255393982e-02 3.7122800946235657e-01</leafValues></_>
        <_>
          <internalNodes>
            0 -1 37 5.7347435504198074e-03</internalNodes>
          <leafValues>
            7.1714155375957489e-02 -5.2136707305908203e-01</leafValues></_>
        <_>
          <internalNodes>
            0 -1 75 -4.4757053256034851e-02</internalNodes>
          <leafValues>
            4.7729283571243286e-01 -7.5822561979293823e-02</leafValues></_>
        <_>
          <internalNodes>
            0 -1 125 2.7627319097518921e-02</internalNodes>
          <leafValues>
            6.3301727175712585e-02 -6.4075314998626709e-01</leafValues></_>
        <_>
          <internalNodes>
            0 -1 147 2.1741241216659546e-03</internalNodes>
          <leafValues>
            -2.0131629705429077e-01 1.8560925126075745e-01</leafValues></_>
        <_>
          <internalNodes>
            0 -1 57 1.0169858112931252e-02</internalNodes>
          <leafValues>
            4.0331318974494934e-02 -8.0430895090103149e-01</leafValues></_>
        <_>
          <internalNodes>
            0 -1 60 -1.8592034466564655e-03</internalNodes>
          <leafValues>
            3.8228154182434082e-02 -7.2809046506881714e-01</leafValues></_>
        <_>
          <internalNodes>
            0 -1 180 -3.6060787737369537e-02</internalNodes>
          <leafValues>
            -6.5883082151412964e-01 4.2440254241228104e-02</leafValues></_>
        <_>
          <internalNodes>
            0 -1 285 6.5743515733629465e-04</internalNodes>
          <leafValues>
            -2.0282083749771118e-01 1.6485124826431274e-01</leafValues></_>
        <_>
          <internalNodes>
            0 -1 34 -7.7141285873949528e-03</internalNodes>
          <leafValues>
            -5.4488527774810791e-01 6.5767303109169006e-02</leafValues></_>
        <_>
          <internalNodes>
            0 -1 228 2.5461729615926743e-02</internalNodes>
          <leafValues>
            -3.1393936276435852e-01 1.0620419681072235e-01</leafValues></_>
        <_>
          <internalNodes>
            0 -1 186 4.0316567756235600e-03</internalNodes>
          <leafValues>
            -1.5271224081516266e-01 2.2525459527969360e-01</leafValues></_>
        <_>
          <internalNodes>
            0 -1 159 4.9263080582022667e-03</internalNodes>
          <leafValues>
            -1.3495860993862152e-01 3.0557045340538025e-01</leafValues></_>
        <_>
          <internalNodes>
            0 -1 160 -1.1410024948418140e-02</internalNodes>
          <leafValues>
            3.4570103883743286e-01 -1.1987956613302231e-01</leafValues></_>
        <_>
          <internalNodes>
            0 -1 290 1.2793983332812786e-02</internalNodes>
          <leafValues>
            6.5767943859100342e-02 -5.5720937252044678e-01</leafValues></_>
        <_>
          <internalNodes>
            0 -1 153 -3.7755787372589111e-02</internalNodes>
          <leafValues>
            6.2926524877548218e-01 -6.1444155871868134e-02</leafValues></_>
        <_>
          <internalNodes>
            0 -1 247 3.9816759526729584e-03</internalNodes>
          <leafValues>
            6.4976215362548828e-02 -5.9944617748260498e-01</leafValues></_>
        <_>
          <internalNodes>
            0 -1 15 1.0988633334636688e-01</internalNodes>
          <leafValues>
            -8.5263460874557495e-02 4.3022957444190979e-01</leafValues></_>
        <_>
          <internalNodes>
            0 -1 25 -3.4565972164273262e-03</internalNodes>
          <leafValues>
            1.9877801835536957e-01 -1.8443796038627625e-01</leafValues></_>
        <_>
          <internalNodes>
            0 -1 23 -1.2189308181405067e-02</internalNodes>
          <leafValues>
            -8.3812475204467773e-01 3.7441149353981018e-02</leafValues></_>
        <_>
          <internalNodes>
            0 -1 222 -9.7278524190187454e-03</internalNodes>
          <leafValues>
            3.1377369165420532e-01 -1.1055640131235123e-01</leafValues></_>
        <_>
          <internalNodes>
            0 -1 289 3.7799389101564884e-03</internalNodes>
          <leafValues>
            -1.3335856795310974e-01 2.8151470422744751e-01</leafValues></_>
        <_>
          <internalNodes>
            0 -1 92 3.9319664239883423e-02</internalNodes>
          <leafValues>
            3.6081723868846893e-02 -8.8464802503585815e-01</leafValues></_>
        <_>
          <internalNodes>
            0 -1 90 2.8180512599647045e-03</internalNodes>
          <leafValues>
            -1.8861022591590881e-01 1.6278243064880371e-01</leafValues></_>
        <_>
          <internalNodes>
            0 -1 141 -4.5488432049751282e-02</internalNodes>
          <leafValues>
            4.0268984436988831e-01 -8.9926145970821381e-02</leafValues></_>
        <_>
          <internalNodes>
            0 -1 257 -3.3678688108921051e-02</internalNodes>
          <leafValues>
            5.2895802259445190e-01 -5.7755831629037857e-02</leafValues></_>
        <_>
          <internalNodes>
            0 -1 46 1.6211818903684616e-02</internalNodes>
          <leafValues>
            6.5442949533462524e-02 -4.9331223964691162e-01</leafValues></_>
        <_>
          <internalNodes>
            0 -1 87 -5.4227164946496487e-03</internalNodes>
          <leafValues>
            -6.2520939111709595e-01 4.3598994612693787e-02</leafValues></_>
        <_>
          <internalNodes>
            0 -1 277 -1.1786761693656445e-02</internalNodes>
          <leafValues>
            -5.0211393833160400e-01 5.0963316112756729e-02</leafValues></_>
        <_>
          <internalNodes>
            0 -1 72 -3.1886644661426544e-02</internalNodes>
          <leafValues>
            4.7749811410903931e-01 -6.5194241702556610e-02</leafValues></_>
        <_>
          <internalNodes>
            0 -1 113 5.3698066039942205e-05</internalNodes>
          <leafValues>
            -2.3950840532779694e-01 1.4326375722885132e-01</leafValues></_>
        <_>
          <internalNodes>
            0 -1 112 -1.4680225402116776e-02</internalNodes>
          <leafValues>
            -6.7240816354751587e-01 4.6896498650312424e-02</leafValues></_>
        <_>
          <internalNodes>
            0 -1 292 7.2404406964778900e-03</internalNodes>
          <leafValues>
            -9.3958504498004913e-02 3.6560913920402527e-01</leafValues></_>
        <_>
          <internalNodes>
            0 -1 238 2.5271836202591658e-03</internalNodes>
          <leafValues>
            -1.6654631495475769e-01 1.8225273489952087e-01</leafValues></_>
        <_>
          <internalNodes>
            0 -1 150 3.9837084710597992e-02</internalNodes>
          <leafValues>
            3.4136522561311722e-02 -8.6406010389328003e-01</leafValues></_>
        <_>
          <internalNodes>
            0 -1 221 -2.2140294313430786e-02</internalNodes>
          <leafValues>
            -7.9822498559951782e-01 2.7934340760111809e-02</leafValues></_>
        <_>
          <internalNodes>
            0 -1 242 1.7834175378084183e-02</internalNodes>
          <leafValues>
            3.3856041729450226e-02 -7.2211307287216187e-01</leafValues></_></weakClassifiers></_>
    <!-- stage 10 -->
    <_>
      <maxWeakCount>62</maxWeakCount>
      <stageThreshold>-1.0164481401443481e+00</stageThreshold>
      <weakClassifiers>
        <_>
          <internalNodes>
            0 -1 224 1.0395464487373829e-03</internalNodes>
          <leafValues>
            5.8011051267385483e-02 5.4479020833969116e-01</leafValues></_>
        <_>
          <internalNodes>
            0 -1 38 -8.5571873933076859e-03</internalNodes>
          <leafValues>
            3.2147499918937683e-01 -1.7466825246810913e-01</leafValues></_>
        <_>
          <internalNodes>
            0 -1 162 -5.5574044585227966e-02</internalNodes>
          <leafValues>
            4.5795610547065735e-01 -9.8697096109390259e-02</leafValues></_>
        <_>
          <internalNodes>
            0 -1 109 7.4181305244565010e-03</internalNodes>
          <leafValues>
            -2.5661492347717285e-01 2.2511579096317291e-01</leafValues></_>
        <_>
          <internalNodes>
            0 -1 74 5.1217759028077126e-03</internalNodes>
          <leafValues>
            -3.7808436155319214e-01 1.1138088256120682e-01</leafValues></_>
        <_>
          <internalNodes>
            0 -1 35 -7.3613144923001528e-04</internalNodes>
          <leafValues>
            9.8071500658988953e-02 -3.9284786581993103e-01</leafValues></_>
        <_>
          <internalNodes>
            0 -1 261 -6.1281044036149979e-03</internalNodes>
          <leafValues>
            8.2399666309356689e-02 -4.5352160930633545e-01</leafValues></_>
        <_>
          <internalNodes>
            0 -1 296 -6.0783578082919121e-03</internalNodes>
          <leafValues>
            2.0026384294033051e-01 -1.9179913401603699e-01</leafValues></_>
        <_>
          <internalNodes>
            0 -1 141 7.0870891213417053e-02</internalNodes>
          <leafValues>
            -7.8596599400043488e-02 5.0516557693481445e-01</leafValues></_>
        <_>
          <internalNodes>
            0 -1 140 4.7735069529153407e-04</internalNodes>
          <leafValues>
            -2.0870168507099152e-01 1.9434735178947449e-01</leafValues></_>
        <_>
          <internalNodes>
            0 -1 80 1.1537059908732772e-03</internalNodes>
          <leafValues>
            8.6298212409019470e-02 -4.1022425889968872e-01</leafValues></_>
        <_>
          <internalNodes>
            0 -1 294 -6.1270050704479218e-02</internalNodes>
          <leafValues>
            5.9116154909133911e-01 -6.2021560966968536e-02</leafValues></_>
        <_>
          <internalNodes>
            0 -1 267 -2.9879570938646793e-03</internalNodes>
          <leafValues>
            2.8925970196723938e-01 -1.2775699794292450e-01</leafValues></_>
        <_>
          <internalNodes>
            0 -1 266 -2.3400001227855682e-03</internalNodes>
          <leafValues>
            3.5844320058822632e-01 -1.2387542426586151e-01</leafValues></_>
        <_>
          <internalNodes>
            0 -1 56 1.3132184743881226e-02</internalNodes>
          <leafValues>
            4.9665182828903198e-02 -7.6837503910064697e-01</leafValues></_>
        <_>
          <internalNodes>
            0 -1 49 -2.0494125783443451e-02</internalNodes>
          <leafValues>
            -6.4084303379058838e-01 4.6263497322797775e-02</leafValues></_>
        <_>
          <internalNodes>
            0 -1 207 -1.6619654372334480e-02</internalNodes>
          <leafValues>
            -7.8032511472702026e-01 3.2290015369653702e-02</leafValues></_>
        <_>
          <internalNodes>
            0 -1 206 5.8701699599623680e-03</internalNodes>
          <leafValues>
            -1.8484959006309509e-01 1.7226770520210266e-01</leafValues></_>
        <_>
          <internalNodes>
            0 -1 43 1.7652555834501982e-03</internalNodes>
          <leafValues>
            -1.2206348776817322e-01 2.4364675581455231e-01</leafValues></_>
        <_>
          <internalNodes>
            0 -1 101 2.1337550133466721e-03</internalNodes>
          <leafValues>
            -2.8713744878768921e-01 1.1235232651233673e-01</leafValues></_>
        <_>
          <internalNodes>
            0 -1 4 2.7137231081724167e-02</internalNodes>
          <leafValues>
            -9.9592179059982300e-02 3.8411721587181091e-01</leafValues></_>
        <_>
          <internalNodes>
            0 -1 132 1.0161551646888256e-02</internalNodes>
          <leafValues>
            -1.8764574825763702e-01 1.8223047256469727e-01</leafValues></_>
        <_>
          <internalNodes>
            0 -1 219 8.5241794586181641e-03</internalNodes>
          <leafValues>
            5.5387705564498901e-02 -6.1054229736328125e-01</leafValues></_>
        <_>
          <internalNodes>
            0 -1 144 1.4171500224620104e-03</internalNodes>
          <leafValues>
            -2.1953818202018738e-01 1.5106987953186035e-01</leafValues></_>
        <_>
          <internalNodes>
            0 -1 198 1.4070754870772362e-02</internalNodes>
          <leafValues>
            4.9577187746763229e-02 -7.7807497978210449e-01</leafValues></_>
        <_>
          <internalNodes>
            0 -1 272 1.2340100482106209e-02</internalNodes>
          <leafValues>
            -8.0348506569862366e-02 4.0918451547622681e-01</leafValues></_>
        <_>
          <internalNodes>
            0 -1 235 7.3500960133969784e-03</internalNodes>
          <leafValues>
            -1.5266582369804382e-01 2.0176413655281067e-01</leafValues></_>
        <_>
          <internalNodes>
            0 -1 59 -8.0192275345325470e-03</internalNodes>
          <leafValues>
            -7.3641681671142578e-01 3.8576547056436539e-02</leafValues></_>
        <_>
          <internalNodes>
            0 -1 179 1.1873776093125343e-03</internalNodes>
          <leafValues>
            5.9715095907449722e-02 -4.2167779803276062e-01</leafValues></_>
        <_>
          <internalNodes>
            0 -1 139 2.2999573498964310e-02</internalNodes>
          <leafValues>
            -7.0923067629337311e-02 4.1617554426193237e-01</leafValues></_>
        <_>
          <internalNodes>
            0 -1 190 1.7660163342952728e-02</internalNodes>
          <leafValues>
            -8.6262218654155731e-02 3.4737509489059448e-01</leafValues></_>
        <_>
          <internalNodes>
            0 -1 244 3.6322571337223053e-02</internalNodes>
          <leafValues>
            5.2633337676525116e-02 -6.1622494459152222e-01</leafValues></_>
        <_>
          <internalNodes>
            0 -1 281 5.8688400313258171e-03</internalNodes>
          <leafValues>
            -1.3290841877460480e-01 2.2240555286407471e-01</leafValues></_>
        <_>
          <internalNodes>
            0 -1 291 -2.6065072044730186e-02</internalNodes>
          <leafValues>
            4.6924152970314026e-01 -6.8002142012119293e-02</leafValues></_>
        <_>
          <internalNodes>
            0 -1 68 8.6083244532346725e-03</internalNodes>
          <leafValues>
            4.1859071701765060e-02 -7.2410792112350464e-01</leafValues></_>
        <_>
          <internalNodes>
            0 -1 199 5.5469055660068989e-03</internalNodes>
          <leafValues>
            5.9979580342769623e-02 -4.1841337084770203e-01</leafValues></_>
        <_>
          <internalNodes>
            0 -1 212 1.4210411906242371e-01</internalNodes>
          <leafValues>
            -7.5734496116638184e-02 4.1670486330986023e-01</leafValues></_>
        <_>
          <internalNodes>
            0 -1 263 -6.6512578632682562e-04</internalNodes>
          <leafValues>
            1.6734611988067627e-01 -1.7062959074974060e-01</leafValues></_>
        <_>
          <internalNodes>
            0 -1 227 3.3804178237915039e-03</internalNodes>
          <leafValues>
            9.2789031565189362e-02 -3.3671161532402039e-01</leafValues></_>
        <_>
          <internalNodes>
            0 -1 184 6.6393036395311356e-03</internalNodes>
          <leafValues>
            4.9468930810689926e-02 -5.4566800594329834e-01</leafValues></_>
        <_>
          <internalNodes>
            0 -1 142 -1.0627009905874729e-02</internalNodes>
          <leafValues>
            -7.3766356706619263e-01 3.2606482505798340e-02</leafValues></_>
        <_>
          <internalNodes>
            0 -1 97 -2.0171558484435081e-02</internalNodes>
          <leafValues>
            -6.6132134199142456e-01 3.7384007126092911e-02</leafValues></_>
        <_>
          <internalNodes>
            0 -1 174 1.3605613261461258e-02</internalNodes>
          <leafValues>
            6.2651999294757843e-02 -4.4313186407089233e-01</leafValues></_>
        <_>
          <internalNodes>
            0 -1 248 -1.0732294991612434e-02</internalNodes>
          <leafValues>
            4.9352672696113586e-01 -6.2165733426809311e-02</leafValues></_>
        <_>
          <internalNodes>
            0 -1 130 1.3821398606523871e-03</internalNodes>
          <leafValues>
            -1.6013766825199127e-01 1.7615447938442230e-01</leafValues></_>
        <_>
          <internalNodes>
            0 -1 187 -2.2755528334528208e-03</internalNodes>
          <leafValues>
            2.4652859568595886e-01 -1.1008149385452271e-01</leafValues></_>
        <_>
          <internalNodes>
            0 -1 159 8.2534085959196091e-03</internalNodes>
          <leafValues>
            -8.7319642305374146e-02 3.4322804212570190e-01</leafValues></_>
        <_>
          <internalNodes>
            0 -1 251 5.8271419256925583e-03</internalNodes>
          <leafValues>
            -1.0708868503570557e-01 3.3062800765037537e-01</leafValues></_>
        <_>
          <internalNodes>
            0 -1 252 -8.9122392237186432e-03</internalNodes>
          <leafValues>
            2.0950822532176971e-01 -1.7284837365150452e-01</leafValues></_>
        <_>
          <internalNodes>
            0 -1 152 9.0232922229915857e-04</internalNodes>
          <leafValues>
            -1.7810866236686707e-01 1.6027536988258362e-01</leafValues></_>
        <_>
          <internalNodes>
            0 -1 86 4.2732324451208115e-02</internalNodes>
          <leafValues>
            6.3683018088340759e-02 -5.1798862218856812e-01</leafValues></_>
        <_>
          <internalNodes>
            0 -1 65 -2.3237353190779686e-02</internalNodes>
          <leafValues>
            -7.7954602241516113e-01 3.0096100643277168e-02</leafValues></_>
        <_>
          <internalNodes>
            0 -1 100 2.3823369294404984e-02</internalNodes>
          <leafValues>
            3.3050492405891418e-02 -7.0879429578781128e-01</leafValues></_>
        <_>
          <internalNodes>
            0 -1 265 -1.8800670281052589e-02</internalNodes>
          <leafValues>
            1.2576642632484436e-01 -2.1757687628269196e-01</leafValues></_>
        <_>
          <internalNodes>
            0 -1 166 -9.0042948722839355e-03</internalNodes>
          <leafValues>
            3.1924578547477722e-01 -9.6651121973991394e-02</leafValues></_>
        <_>
          <internalNodes>
            0 -1 276 -1.3388482853770256e-02</internalNodes>
          <leafValues>
            3.0349111557006836e-01 -1.0485617816448212e-01</leafValues></_>
        <_>
          <internalNodes>
            0 -1 103 5.7779820635914803e-03</internalNodes>
          <leafValues>
            4.9378320574760437e-02 -5.8859837055206299e-01</leafValues></_>
        <_>
          <internalNodes>
            0 -1 55 -7.8324675559997559e-03</internalNodes>
          <leafValues>
            2.2454755008220673e-01 -1.1804336309432983e-01</leafValues></_>
        <_>
          <internalNodes>
            0 -1 89 -5.1277978345751762e-03</internalNodes>
          <leafValues>
            2.3981235921382904e-01 -1.4582207798957825e-01</leafValues></_>
        <_>
          <internalNodes>
            0 -1 91 7.5672408565878868e-03</internalNodes>
          <leafValues>
            4.0091838687658310e-02 -7.1708846092224121e-01</leafValues></_>
        <_>
          <internalNodes>
            0 -1 93 6.2867836095392704e-04</internalNodes>
          <leafValues>
            -1.8584358692169189e-01 1.7327994108200073e-01</leafValues></_>
        <_>
          <internalNodes>
            0 -1 53 1.5228838892653584e-03</internalNodes>
          <leafValues>
            -1.1964464187622070e-01 2.2625739872455597e-01</leafValues></_></weakClassifiers></_></stages>
  <features>
    <_>
      <rects>
        <_>
          0 3 4 9 -1.</_>
        <_>
          2 3 2 9 2.</_></rects>
      <tilted>0</tilted></_>
    <_>
      <rects>
        <_>
          0 4 2 5 -1.</_>
        <_>
          1 4 1 5 2.</_></rects>
      <tilted>0</tilted></_>
    <_>
      <rects>
        <_>
          0 4 2 6 -1.</_>
        <_>
          1 4 1 6 2.</_></rects>
      <tilted>0</tilted></_>
    <_>
      <rects>
        <_>
          0 5 2 6 -1.</_>
        <_>
          1 5 1 6 2.</_></rects>
      <tilted>0</tilted></_>
    <_>
      <rects>
        <_>
          0 5 6 5 -1.</_>
        <_>
          2 5 2 5 3.</_></rects>
      <tilted>0</tilted></_>
    <_>
      <rects>
        <_>
          0 6 2 3 -1.</_>
        <_>
          1 6 1 3 2.</_></rects>
      <tilted>0</tilted></_>
    <_>
      <rects>
        <_>
          0 6 3 3 -1.</_>
        <_>
          1 6 1 3 3.</_></rects>
      <tilted>0</tilted></_>
    <_>
      <rects>
        <_>
          0 7 2 1 -1.</_>
        <_>
          1 7 1 1 2.</_></rects>
      <tilted>0</tilted></_>
    <_>
      <rects>
        <_>
          0 7 3 1 -1.</_>
        <_>
          1 7 1 1 3.</_></rects>
      <tilted>0</tilted></_>
    <_>
      <rects>
        <_>
          0 7 3 2 -1.</_>
        <_>
          1 7 1 2 3.</_></rects>
      <tilted>0</tilted></_>
    <_>
      <rects>
        <_>
          0 7 12 8 -1.</_>
        <_>
          0 7 6 4 2.</_>
        <_>
          6 11 6 4 2.</_></rects>
      <tilted>0</tilted></_>
    <_>
      <rects>
        <_>
          0 10 12 4 -1.</_>
        <_>
          0 10 6 2 2.</_>
        <_>
          6 12 6 2 2.</_></rects>
      <tilted>0</tilted></_>
    <_>
      <rects>
        <_>
          0 10 12 4 -1.</_>
        <_>
          6 10 6 4 2.</_></rects>
      <tilted>0</tilted></_>
    <_>
      <rects>
        <_>
          0 12 10 1 -1.</_>
        <_>
          5 12 5 1 2.</_></rects>
      <tilted>0</tilted></_>
    <_>
      <rects>
        <_>
          0 12 10 2 -1.</_>
        <_>
          5 12 5 2 2.</_></rects>
      <tilted>0</tilted></_>
    <_>
      <rects>
        <_>
          1 0 12 10 -1.</_>
        <_>
          1 5 12 5 2.</_></rects>
      <tilted>0</tilted></_>
    <_>
      <rects>
        <_>
          1 0 13 6 -1.</_>
        <_>
          1 3 13 3 2.</_></rects>
      <tilted>0</tilted></_>
    <_>
      <rects>
        <_>
          1 0 14 8 -1.</_>
        <_>
          1 4 14 4 2.</_></rects>
      <tilted>0</tilted></_>
    <_>
      <rects>
        <_>
          1 2 6 12 -1.</_>
        <_>
          4 2 3 12 2.</_></rects>
      <tilted>0</tilted></_>
    <_>
      <rects>
        <_>
          1 3 3 3 -1.</_>
        <_>
          2 3 1 3 3.</_></rects>
      <tilted>0</tilted></_>
    <_>
      <rects>
        <_>
          1 3 4 1 -1.</_>
        <_>
          3 3 2 1 2.</_></rects>
      <tilted>0</tilted></_>
    <_>
      <rects>
        <_>
          1 3 10 6 -1.</_>
        <_>
          1 3 5 3 2.</_>
        <_>
          6 6 5 3 2.</_></rects>
      <tilted>0</tilted></_>
    <_>
      <rects>
        <_>
          1 4 8 4 -1.</_>
        <_>
          1 4 4 2 2.</_>
        <_>
          5 6 4 2 2.</_></rects>
      <tilted>0</tilted></_>
    <_>
      <rects>
        <_>
          1 5 3 1 -1.</_>
        <_>
          2 5 1 1 3.</_></rects>
      <tilted>0</tilted></_>
    <_>
      <rects>
        <_>
          1 5 2 2 -1.</_>
        <_>
          2 5 1 2 2.</_></rects>
      <tilted>0</tilted></_>
    <_>
      <rects>
        <_>
          1 5 3 2 -1.</_>
        <_>
          2 5 1 2 3.</_></rects>
      <tilted>0</tilted></_>
    <_>
      <rects>
        <_>
          1 5 6 4 -1.</_>
        <_>
          4 5 3 4 2.</_></rects>
      <tilted>0</tilted></_>
    <_>
      <rects>
        <_>
          1 5 8 5 -1.</_>
        <_>
          5 5 4 5 2.</_></rects>
      <tilted>0</tilted></_>
    <_>
      <rects>
        <_>
          1 5 5 4 -1.</_>
        <_>
          1 7 5 2 2.</_></rects>
      <tilted>0</tilted></_>
    <_>
      <rects>
        <_>
          1 6 3 2 -1.</_>
        <_>
          2 6 1 2 3.</_></rects>
      <tilted>0</tilted></_>
    <_>
      <rects>
        <_>
          1 6 6 2 -1.</_>
        <_>
          4 6 3 2 2.</_></rects>
      <tilted>0</tilted></_>
    <_>
      <rects>
        <_>
          1 6 3 6 -1.</_>
        <_>
          1 8 3 2 3.</_></rects>
      <tilted>0</tilted></_>
    <_>
      <rects>
        <_>
          1 6 10 4 -1.</_>
        <_>
          6 6 5 4 2.</_></rects>
      <tilted>0</tilted></_>
    <_>
      <rects>
        <_>
          1 7 3 2 -1.</_>
        <_>
          2 7 1 2 3.</_></rects>
      <tilted>0</tilted></_>
    <_>
      <rects>
        <_>
          1 7 6 1 -1.</_>
        <_>
          4 7 3 1 2.</_></rects>
      <tilted>0</tilted></_>
    <_>
      <rects>
        <_>
          1 7 8 1 -1.</_>
        <_>
          5 7 4 1 2.</_></rects>
      <tilted>0</tilted></_>
    <_>
      <rects>
        <_>
          1 7 9 2 -1.</_>
        <_>
          1 8 9 1 2.</_></rects>
      <tilted>0</tilted></_>
    <_>
      <rects>
        <_>
          1 8 1 3 -1.</_>
        <_>
          1 9 1 1 3.</_></rects>
      <tilted>0</tilted></_>
    <_>
      <rects>
        <_>
          1 8 3 2 -1.</_>
        <_>
          2 8 1 2 3.</_></rects>
      <tilted>0</tilted></_>
    <_>
      <rects>
        <_>
          1 8 12 2 -1.</_>
        <_>
          1 8 6 1 2.</_>
        <_>
          7 9 6 1 2.</_></rects>
      <tilted>0</tilted></_>
    <_>
      <rects>
        <_>
          1 9 6 3 -1.</_>
        <_>
          3 9 2 3 3.</_></rects>
      <tilted>0</tilted></_>
    <_>
      <rects>
        <_>
          2 0 1 15 -1.</_>
        <_>
          2 5 1 5 3.</_></rects>
      <tilted>0</tilted></_>
    <_>
      <rects>
        <_>
          2 2 8 11 -1.</_>
        <_>
          6 2 4 11 2.</_></rects>
      <tilted>0</tilted></_>
    <_>
      <rects>
        <_>
          2 3 1 2 -1.</_>
        <_>
          2 4 1 1 2.</_></rects>
      <tilted>0</tilted></_>
    <_>
      <rects>
        <_>
          2 3 9 4 -1.</_>
        <_>
          5 3 3 4 3.</_></rects>
      <tilted>0</tilted></_>
    <_>
      <rects>
        <_>
          2 3 8 10 -1.</_>
        <_>
          6 3 4 10 2.</_></rects>
      <tilted>0</tilted></_>
    <_>
      <rects>
        <_>
          2 4 6 1 -1.</_>
        <_>
          4 4 2 1 3.</_></rects>
      <tilted>0</tilted></_>
    <_>
      <rects>
        <_>
          2 4 2 4 -1.</_>
        <_>
          2 6 2 2 2.</_></rects>
      <tilted>0</tilted></_>
    <_>
      <rects>
        <_>
          2 4 2 6 -1.</_>
        <_>
          2 6 2 2 3.</_></rects>
      <tilted>0</tilted></_>
    <_>
      <rects>
        <_>
          2 4 3 4 -1.</_>
        <_>
          2 6 3 2 2.</_></rects>
      <tilted>0</tilted></_>
    <_>
      <rects>
        <_>
          2 4 3 6 -1.</_>
        <_>
          2 6 3 2 3.</_></rects>
      <tilted>0</tilted></_>
    <_>
      <rects>
        <_>
          2 4 4 4 -1.</_>
        <_>
          2 6 4 2 2.</_></rects>
      <tilted>0</tilted></_>
    <_>
      <rects>
        <_>
          2 4 7 6 -1.</_>
        <_>
          2 7 7 3 2.</_></rects>
      <tilted>0</tilted></_>
    <_>
      <rects>
        <_>
          2 5 1 3 -1.</_>
        <_>
          2 6 1 1 3.</_></rects>
      <tilted>0</tilted></_>
    <_>
      <rects>
        <_>
          2 5 1 4 -1.</_>
        <_>
          2 7 1 2 2.</_></rects>
      <tilted>0</tilted></_>
    <_>
      <rects>
        <_>
          2 5 3 2 -1.</_>
        <_>
          3 5 1 2 3.</_></rects>
      <tilted>0</tilted></_>
    <_>
      <rects>
        <_>
          2 5 2 6 -1.</_>
        <_>
          2 7 2 2 3.</_></rects>
      <tilted>0</tilted></_>
    <_>
      <rects>
        <_>
          2 5 3 2 -1.</_>
        <_>
          2 6 3 1 2.</_></rects>
      <tilted>0</tilted></_>
    <_>
      <rects>
        <_>
          2 5 3 4 -1.</_>
        <_>
          2 7 3 2 2.</_></rects>
      <tilted>0</tilted></_>
    <_>
      <rects>
        <_>
          2 6 1 4 -1.</_>
        <_>
          2 8 1 2 2.</_></rects>
      <tilted>0</tilted></_>
    <_>
      <rects>
        <_>
          2 6 8 3 -1.</_>
        <_>
          6 6 4 3 2.</_></rects>
      <tilted>0</tilted></_>
    <_>
      <rects>
        <_>
          2 6 8 4 -1.</_>
        <_>
          6 6 4 4 2.</_></rects>
      <tilted>0</tilted></_>
    <_>
      <rects>
        <_>
          2 6 10 3 -1.</_>
        <_>
          7 6 5 3 2.</_></rects>
      <tilted>0</tilted></_>
    <_>
      <rects>
        <_>
          2 7 3 1 -1.</_>
        <_>
          3 7 1 1 3.</_></rects>
      <tilted>0</tilted></_>
    <_>
      <rects>
        <_>
          2 7 1 4 -1.</_>
        <_>
          2 9 1 2 2.</_></rects>
      <tilted>0</tilted></_>
    <_>
      <rects>
        <_>
          2 7 3 2 -1.</_>
        <_>
          3 7 1 2 3.</_></rects>
      <tilted>0</tilted></_>
    <_>
      <rects>
        <_>
          2 7 6 1 -1.</_>
        <_>
          4 7 2 1 3.</_></rects>
      <tilted>0</tilted></_>
    <_>
      <rects>
        <_>
          2 7 8 1 -1.</_>
        <_>
          6 7 4 1 2.</_></rects>
      <tilted>0</tilted></_>
    <_>
      <rects>
        <_>
          2 8 1 3 -1.</_>
        <_>
          2 9 1 1 3.</_></rects>
      <tilted>0</tilted></_>
    <_>
      <rects>
        <_>
          2 8 1 4 -1.</_>
        <_>
          2 10 1 2 2.</_></rects>
      <tilted>0</tilted></_>
    <_>
      <rects>
        <_>
          2 8 3 2 -1.</_>
        <_>
          3 8 1 2 3.</_></rects>
      <tilted>0</tilted></_>
    <_>
      <rects>
        <_>
          2 8 2 3 -1.</_>
        <_>
          2 9 2 1 3.</_></rects>
      <tilted>0</tilted></_>
    <_>
      <rects>
        <_>
          2 8 2 6 -1.</_>
        <_>
          2 11 2 3 2.</_></rects>
      <tilted>0</tilted></_>
    <_>
      <rects>
        <_>
          2 9 2 2 -1.</_>
        <_>
          2 10 2 1 2.</_></rects>
      <tilted>0</tilted></_>
    <_>
      <rects>
        <_>
          2 12 8 1 -1.</_>
        <_>
          6 12 4 1 2.</_></rects>
      <tilted>0</tilted></_>
    <_>
      <rects>
        <_>
          3 0 7 4 -1.</_>
        <_>
          3 2 7 2 2.</_></rects>
      <tilted>0</tilted></_>
    <_>
      <rects>
        <_>
          3 0 8 4 -1.</_>
        <_>
          3 2 8 2 2.</_></rects>
      <tilted>0</tilted></_>
    <_>
      <rects>
        <_>
          3 0 10 2 -1.</_>
        <_>
          3 1 10 1 2.</_></rects>
      <tilted>0</tilted></_>
    <_>
      <rects>
        <_>
          3 3 3 4 -1.</_>
        <_>
          3 5 3 2 2.</_></rects>
      <tilted>0</tilted></_>
    <_>
      <rects>
        <_>
          3 3 7 6 -1.</_>
        <_>
          3 6 7 3 2.</_></rects>
      <tilted>0</tilted></_>
    <_>
      <rects>
        <_>
          3 4 1 2 -1.</_>
        <_>
          3 5 1 1 2.</_></rects>
      <tilted>0</tilted></_>
    <_>
      <rects>
        <_>
          3 4 3 2 -1.</_>
        <_>
          4 4 1 2 3.</_></rects>
      <tilted>0</tilted></_>
    <_>
      <rects>
        <_>
          3 4 2 4 -1.</_>
        <_>
          3 4 1 2 2.</_>
        <_>
          4 6 1 2 2.</_></rects>
      <tilted>0</tilted></_>
    <_>
      <rects>
        <_>
          3 4 2 3 -1.</_>
        <_>
          3 5 2 1 3.</_></rects>
      <tilted>0</tilted></_>
    <_>
      <rects>
        <_>
          3 4 2 6 -1.</_>
        <_>
          3 6 2 2 3.</_></rects>
      <tilted>0</tilted></_>
    <_>
      <rects>
        <_>
          3 4 2 9 -1.</_>
        <_>
          3 7 2 3 3.</_></rects>
      <tilted>0</tilted></_>
    <_>
      <rects>
        <_>
          3 4 3 9 -1.</_>
        <_>
          3 7 3 3 3.</_></rects>
      <tilted>0</tilted></_>
    <_>
      <rects>
        <_>
          3 5 1 2 -1.</_>
        <_>
          3 6 1 1 2.</_></rects>
      <tilted>0</tilted></_>
    <_>
      <rects>
        <_>
          3 5 1 6 -1.</_>
        <_>
          3 7 1 2 3.</_></rects>
      <tilted>0</tilted></_>
    <_>
      <rects>
        <_>
          3 5 1 6 -1.</_>
        <_>
          3 8 1 3 2.</_></rects>
      <tilted>0</tilted></_>
    <_>
      <rects>
        <_>
          3 6 2 1 -1.</_>
        <_>
          4 6 1 1 2.</_></rects>
      <tilted>0</tilted></_>
    <_>
      <rects>
        <_>
          3 6 1 3 -1.</_>
        <_>
          3 7 1 1 3.</_></rects>
      <tilted>0</tilted></_>
    <_>
      <rects>
        <_>
          3 6 3 3 -1.</_>
        <_>
          4 6 1 3 3.</_></rects>
      <tilted>0</tilted></_>
    <_>
      <rects>
        <_>
          3 6 2 2 -1.</_>
        <_>
          3 7 2 1 2.</_></rects>
      <tilted>0</tilted></_>
    <_>
      <rects>
        <_>
          3 6 2 3 -1.</_>
        <_>
          3 7 2 1 3.</_></rects>
      <tilted>0</tilted></_>
    <_>
      <rects>
        <_>
          3 6 3 8 -1.</_>
        <_>
          3 10 3 4 2.</_></rects>
      <tilted>0</tilted></_>
    <_>
      <rects>
        <_>
          3 6 8 3 -1.</_>
        <_>
          7 6 4 3 2.</_></rects>
      <tilted>0</tilted></_>
    <_>
      <rects>
        <_>
          3 6 5 2 -1.</_>
        <_>
          3 7 5 1 2.</_></rects>
      <tilted>0</tilted></_>
    <_>
      <rects>
        <_>
          3 6 6 3 -1.</_>
        <_>
          3 7 6 1 3.</_></rects>
      <tilted>0</tilted></_>
    <_>
      <rects>
        <_>
          3 6 7 2 -1.</_>
        <_>
          3 7 7 1 2.</_></rects>
      <tilted>0</tilted></_>
    <_>
      <rects>
        <_>
          3 6 7 3 -1.</_>
        <_>
          3 7 7 1 3.</_></rects>
      <tilted>0</tilted></_>
    <_>
      <rects>
        <_>
          3 7 2 1 -1.</_>
        <_>
          4 7 1 1 2.</_></rects>
      <tilted>0</tilted></_>
    <_>
      <rects>
        <_>
          3 7 3 1 -1.</_>
        <_>
          4 7 1 1 3.</_></rects>
      <tilted>0</tilted></_>
    <_>
      <rects>
        <_>
          3 7 1 3 -1.</_>
        <_>
          3 8 1 1 3.</_></rects>
      <tilted>0</tilted></_>
    <_>
      <rects>
        <_>
          3 7 2 3 -1.</_>
        <_>
          3 8 2 1 3.</_></rects>
      <tilted>0</tilted></_>
    <_>
      <rects>
        <_>
          3 7 2 4 -1.</_>
        <_>
          3 9 2 2 2.</_></rects>
      <tilted>0</tilted></_>
    <_>
      <rects>
        <_>
          3 7 2 6 -1.</_>
        <_>
          3 10 2 3 2.</_></rects>
      <tilted>0</tilted></_>
    <_>
      <rects>
        <_>
          3 7 10 4 -1.</_>
        <_>
          3 7 5 2 2.</_>
        <_>
          8 9 5 2 2.</_></rects>
      <tilted>0</tilted></_>
    <_>
      <rects>
        <_>
          3 8 2 1 -1.</_>
        <_>
          4 8 1 1 2.</_></rects>
      <tilted>0</tilted></_>
    <_>
      <rects>
        <_>
          3 8 2 2 -1.</_>
        <_>
          4 8 1 2 2.</_></rects>
      <tilted>0</tilted></_>
    <_>
      <rects>
        <_>
          3 8 1 6 -1.</_>
        <_>
          3 10 1 2 3.</_></rects>
      <tilted>0</tilted></_>
    <_>
      <rects>
        <_>
          3 9 1 3 -1.</_>
        <_>
          3 10 1 1 3.</_></rects>
      <tilted>0</tilted></_>
    <_>
      <rects>
        <_>
          3 9 2 3 -1.</_>
        <_>
          3 10 2 1 3.</_></rects>
      <tilted>0</tilted></_>
    <_>
      <rects>
        <_>
          3 9 2 4 -1.</_>
        <_>
          3 11 2 2 2.</_></rects>
      <tilted>0</tilted></_>
    <_>
      <rects>
        <_>
          3 9 7 6 -1.</_>
        <_>
          3 11 7 2 3.</_></rects>
      <tilted>0</tilted></_>
    <_>
      <rects>
        <_>
          3 9 9 6 -1.</_>
        <_>
          3 11 9 2 3.</_></rects>
      <tilted>0</tilted></_>
    <_>
      <rects>
        <_>
          3 10 1 2 -1.</_>
        <_>
          3 11 1 1 2.</_></rects>
      <tilted>0</tilted></_>
    <_>
      <rects>
        <_>
          3 10 2 2 -1.</_>
        <_>
          3 11 2 1 2.</_></rects>
      <tilted>0</tilted></_>
    <_>
      <rects>
        <_>
          3 10 12 2 -1.</_>
        <_>
          3 10 6 1 2.</_>
        <_>
          9 11 6 1 2.</_></rects>
      <tilted>0</tilted></_>
    <_>
      <rects>
        <_>
          3 11 8 3 -1.</_>
        <_>
          3 12 8 1 3.</_></rects>
      <tilted>0</tilted></_>
    <_>
      <rects>
        <_>
          3 12 5 2 -1.</_>
        <_>
          3 13 5 1 2.</_></rects>
      <tilted>0</tilted></_>
    <_>
      <rects>
        <_>
          4 0 8 4 -1.</_>
        <_>
          4 2 8 2 2.</_></rects>
      <tilted>0</tilted></_>
    <_>
      <rects>
        <_>
          4 1 10 4 -1.</_>
        <_>
          4 1 5 2 2.</_>
        <_>
          9 3 5 2 2.</_></rects>
      <tilted>0</tilted></_>
    <_>
      <rects>
        <_>
          4 2 6 2 -1.</_>
        <_>
          6 2 2 2 3.</_></rects>
      <tilted>0</tilted></_>
    <_>
      <rects>
        <_>
          4 2 2 6 -1.</_>
        <_>
          4 5 2 3 2.</_></rects>
      <tilted>0</tilted></_>
    <_>
      <rects>
        <_>
          4 3 6 2 -1.</_>
        <_>
          7 3 3 2 2.</_></rects>
      <tilted>0</tilted></_>
    <_>
      <rects>
        <_>
          4 3 5 6 -1.</_>
        <_>
          4 6 5 3 2.</_></rects>
      <tilted>0</tilted></_>
    <_>
      <rects>
        <_>
          4 3 6 6 -1.</_>
        <_>
          4 6 6 3 2.</_></rects>
      <tilted>0</tilted></_>
    <_>
      <rects>
        <_>
          4 4 2 2 -1.</_>
        <_>
          5 4 1 2 2.</_></rects>
      <tilted>0</tilted></_>
    <_>
      <rects>
        <_>
          4 4 2 8 -1.</_>
        <_>
          4 4 1 4 2.</_>
        <_>
          5 8 1 4 2.</_></rects>
      <tilted>0</tilted></_>
    <_>
      <rects>
        <_>
          4 5 1 2 -1.</_>
        <_>
          4 6 1 1 2.</_></rects>
      <tilted>0</tilted></_>
    <_>
      <rects>
        <_>
          4 6 1 3 -1.</_>
        <_>
          4 7 1 1 3.</_></rects>
      <tilted>0</tilted></_>
    <_>
      <rects>
        <_>
          4 6 3 3 -1.</_>
        <_>
          5 6 1 3 3.</_></rects>
      <tilted>0</tilted></_>
    <_>
      <rects>
        <_>
          4 6 2 2 -1.</_>
        <_>
          4 7 2 1 2.</_></rects>
      <tilted>0</tilted></_>
    <_>
      <rects>
        <_>
          4 6 6 2 -1.</_>
        <_>
          7 6 3 2 2.</_></rects>
      <tilted>0</tilted></_>
    <_>
      <rects>
        <_>
          4 6 7 8 -1.</_>
        <_>
          4 10 7 4 2.</_></rects>
      <tilted>0</tilted></_>
    <_>
      <rects>
        <_>
          4 7 3 1 -1.</_>
        <_>
          5 7 1 1 3.</_></rects>
      <tilted>0</tilted></_>
    <_>
      <rects>
        <_>
          4 7 4 1 -1.</_>
        <_>
          6 7 2 1 2.</_></rects>
      <tilted>0</tilted></_>
    <_>
      <rects>
        <_>
          4 7 2 8 -1.</_>
        <_>
          4 11 2 4 2.</_></rects>
      <tilted>0</tilted></_>
    <_>
      <rects>
        <_>
          4 8 2 4 -1.</_>
        <_>
          4 10 2 2 2.</_></rects>
      <tilted>0</tilted></_>
    <_>
      <rects>
        <_>
          4 11 1 2 -1.</_>
        <_>
          4 12 1 1 2.</_></rects>
      <tilted>0</tilted></_>
    <_>
      <rects>
        <_>
          4 11 8 4 -1.</_>
        <_>
          4 11 4 2 2.</_>
        <_>
          8 13 4 2 2.</_></rects>
      <tilted>0</tilted></_>
    <_>
      <rects>
        <_>
          4 12 3 1 -1.</_>
        <_>
          5 12 1 1 3.</_></rects>
      <tilted>0</tilted></_>
    <_>
      <rects>
        <_>
          4 12 6 1 -1.</_>
        <_>
          6 12 2 1 3.</_></rects>
      <tilted>0</tilted></_>
    <_>
      <rects>
        <_>
          4 12 8 1 -1.</_>
        <_>
          8 12 4 1 2.</_></rects>
      <tilted>0</tilted></_>
    <_>
      <rects>
        <_>
          5 0 5 4 -1.</_>
        <_>
          5 2 5 2 2.</_></rects>
      <tilted>0</tilted></_>
    <_>
      <rects>
        <_>
          5 0 7 4 -1.</_>
        <_>
          5 2 7 2 2.</_></rects>
      <tilted>0</tilted></_>
    <_>
      <rects>
        <_>
          5 2 2 3 -1.</_>
        <_>
          6 2 1 3 2.</_></rects>
      <tilted>0</tilted></_>
    <_>
      <rects>
        <_>
          5 3 4 2 -1.</_>
        <_>
          7 3 2 2 2.</_></rects>
      <tilted>0</tilted></_>
    <_>
      <rects>
        <_>
          5 4 1 9 -1.</_>
        <_>
          5 7 1 3 3.</_></rects>
      <tilted>0</tilted></_>
    <_>
      <rects>
        <_>
          5 5 6 4 -1.</_>
        <_>
          5 5 3 2 2.</_>
        <_>
          8 7 3 2 2.</_></rects>
      <tilted>0</tilted></_>
    <_>
      <rects>
        <_>
          5 5 6 3 -1.</_>
        <_>
          8 5 3 3 2.</_></rects>
      <tilted>0</tilted></_>
    <_>
      <rects>
        <_>
          5 6 1 2 -1.</_>
        <_>
          5 7 1 1 2.</_></rects>
      <tilted>0</tilted></_>
    <_>
      <rects>
        <_>
          5 6 1 6 -1.</_>
        <_>
          5 8 1 2 3.</_></rects>
      <tilted>0</tilted></_>
    <_>
      <rects>
        <_>
          5 6 4 2 -1.</_>
        <_>
          7 6 2 2 2.</_></rects>
      <tilted>0</tilted></_>
    <_>
      <rects>
        <_>
          5 6 3 2 -1.</_>
        <_>
          5 7 3 1 2.</_></rects>
      <tilted>0</tilted></_>
    <_>
      <rects>
        <_>
          5 6 6 2 -1.</_>
        <_>
          8 6 3 2 2.</_></rects>
      <tilted>0</tilted></_>
    <_>
      <rects>
        <_>
          5 6 10 9 -1.</_>
        <_>
          5 9 10 3 3.</_></rects>
      <tilted>0</tilted></_>
    <_>
      <rects>
        <_>
          5 7 2 1 -1.</_>
        <_>
          6 7 1 1 2.</_></rects>
      <tilted>0</tilted></_>
    <_>
      <rects>
        <_>
          5 7 3 1 -1.</_>
        <_>
          6 7 1 1 3.</_></rects>
      <tilted>0</tilted></_>
    <_>
      <rects>
        <_>
          5 7 3 2 -1.</_>
        <_>
          6 7 1 2 3.</_></rects>
      <tilted>0</tilted></_>
    <_>
      <rects>
        <_>
          5 7 1 6 -1.</_>
        <_>
          5 9 1 2 3.</_></rects>
      <tilted>0</tilted></_>
    <_>
      <rects>
        <_>
          5 7 2 6 -1.</_>
        <_>
          5 9 2 2 3.</_></rects>
      <tilted>0</tilted></_>
    <_>
      <rects>
        <_>
          5 9 2 2 -1.</_>
        <_>
          5 9 1 1 2.</_>
        <_>
          6 10 1 1 2.</_></rects>
      <tilted>0</tilted></_>
    <_>
      <rects>
        <_>
          5 11 6 3 -1.</_>
        <_>
          5 12 6 1 3.</_></rects>
      <tilted>0</tilted></_>
    <_>
      <rects>
        <_>
          5 11 7 3 -1.</_>
        <_>
          5 12 7 1 3.</_></rects>
      <tilted>0</tilted></_>
    <_>
      <rects>
        <_>
          5 11 8 2 -1.</_>
        <_>
          5 12 8 1 2.</_></rects>
      <tilted>0</tilted></_>
    <_>
      <rects>
        <_>
          5 12 4 1 -1.</_>
        <_>
          7 12 2 1 2.</_></rects>
      <tilted>0</tilted></_>
    <_>
      <rects>
        <_>
          5 12 6 1 -1.</_>
        <_>
          7 12 2 1 3.</_></rects>
      <tilted>0</tilted></_>
    <_>
      <rects>
        <_>
          5 13 5 2 -1.</_>
        <_>
          5 14 5 1 2.</_></rects>
      <tilted>0</tilted></_>
    <_>
      <rects>
        <_>
          5 13 6 2 -1.</_>
        <_>
          5 14 6 1 2.</_></rects>
      <tilted>0</tilted></_>
    <_>
      <rects>
        <_>
          6 0 5 2 -1.</_>
        <_>
          6 1 5 1 2.</_></rects>
      <tilted>0</tilted></_>
    <_>
      <rects>
        <_>
          6 1 3 3 -1.</_>
        <_>
          6 2 3 1 3.</_></rects>
      <tilted>0</tilted></_>
    <_>
      <rects>
        <_>
          6 2 3 7 -1.</_>
        <_>
          7 2 1 7 3.</_></rects>
      <tilted>0</tilted></_>
    <_>
      <rects>
        <_>
          6 2 4 5 -1.</_>
        <_>
          8 2 2 5 2.</_></rects>
      <tilted>0</tilted></_>
    <_>
      <rects>
        <_>
          6 2 4 6 -1.</_>
        <_>
          8 2 2 6 2.</_></rects>
      <tilted>0</tilted></_>
    <_>
      <rects>
        <_>
          6 3 3 6 -1.</_>
        <_>
          7 3 1 6 3.</_></rects>
      <tilted>0</tilted></_>
    <_>
      <rects>
        <_>
          6 3 3 6 -1.</_>
        <_>
          6 6 3 3 2.</_></rects>
      <tilted>0</tilted></_>
    <_>
      <rects>
        <_>
          6 3 4 6 -1.</_>
        <_>
          6 6 4 3 2.</_></rects>
      <tilted>0</tilted></_>
    <_>
      <rects>
        <_>
          6 5 3 4 -1.</_>
        <_>
          7 5 1 4 3.</_></rects>
      <tilted>0</tilted></_>
    <_>
      <rects>
        <_>
          6 5 3 5 -1.</_>
        <_>
          7 5 1 5 3.</_></rects>
      <tilted>0</tilted></_>
    <_>
      <rects>
        <_>
          6 6 2 1 -1.</_>
        <_>
          7 6 1 1 2.</_></rects>
      <tilted>0</tilted></_>
    <_>
      <rects>
        <_>
          6 6 1 2 -1.</_>
        <_>
          6 7 1 1 2.</_></rects>
      <tilted>0</tilted></_>
    <_>
      <rects>
        <_>
          6 6 2 3 -1.</_>
        <_>
          6 7 2 1 3.</_></rects>
      <tilted>0</tilted></_>
    <_>
      <rects>
        <_>
          6 6 5 2 -1.</_>
        <_>
          6 7 5 1 2.</_></rects>
      <tilted>0</tilted></_>
    <_>
      <rects>
        <_>
          6 7 3 1 -1.</_>
        <_>
          7 7 1 1 3.</_></rects>
      <tilted>0</tilted></_>
    <_>
      <rects>
        <_>
          6 7 1 3 -1.</_>
        <_>
          6 8 1 1 3.</_></rects>
      <tilted>0</tilted></_>
    <_>
      <rects>
        <_>
          6 7 2 2 -1.</_>
        <_>
          6 7 1 1 2.</_>
        <_>
          7 8 1 1 2.</_></rects>
      <tilted>0</tilted></_>
    <_>
      <rects>
        <_>
          6 7 4 3 -1.</_>
        <_>
          8 7 2 3 2.</_></rects>
      <tilted>0</tilted></_>
    <_>
      <rects>
        <_>
          6 8 2 2 -1.</_>
        <_>
          6 8 1 1 2.</_>
        <_>
          7 9 1 1 2.</_></rects>
      <tilted>0</tilted></_>
    <_>
      <rects>
        <_>
          6 8 2 3 -1.</_>
        <_>
          6 9 2 1 3.</_></rects>
      <tilted>0</tilted></_>
    <_>
      <rects>
        <_>
          6 8 4 2 -1.</_>
        <_>
          6 8 2 1 2.</_>
        <_>
          8 9 2 1 2.</_></rects>
      <tilted>0</tilted></_>
    <_>
      <rects>
        <_>
          6 8 4 6 -1.</_>
        <_>
          6 11 4 3 2.</_></rects>
      <tilted>0</tilted></_>
    <_>
      <rects>
        <_>
          6 9 1 3 -1.</_>
        <_>
          6 10 1 1 3.</_></rects>
      <tilted>0</tilted></_>
    <_>
      <rects>
        <_>
          6 9 2 3 -1.</_>
        <_>
          6 10 2 1 3.</_></rects>
      <tilted>0</tilted></_>
    <_>
      <rects>
        <_>
          6 9 6 2 -1.</_>
        <_>
          6 9 3 1 2.</_>
        <_>
          9 10 3 1 2.</_></rects>
      <tilted>0</tilted></_>
    <_>
      <rects>
        <_>
          6 10 2 3 -1.</_>
        <_>
